tree
version=v3
num_class=1
num_tree_per_iteration=1
label_index=0
max_feature_idx=13
objective=regression
feature_names=person reward difficulty duration mobile social web discount informational age income M O median_spending
feature_infos=[0:14487] [0:10] [0:20] [72:240] [0:1] [0:1] [0:1] [0:1] [0:1] [18:101] [30000:120000] [0:1] [0:1] [0.14999999999999999:50.079999999999998]
tree_sizes=482 492 492 490 492 491 488 492 488 492 492 490 486 489 488 492 490 491 492 492 489 489 492 487 491 490 488 489 491 489 492 489 477 487 489 492 491 490 486 492 485 484 489 490 489 487 477 490 488 495 488 474 490 483 491 489 486 476 481 496 474 475 487 485 482 484 491 485 489 487 481 486 495 499 488 481 482 484 493 493 481 487 495 499 496 492 480 498 494 490 506 498 482 487 497 495 493 486 490 491 502 486 496 489 493 477 492 500 478 488 496 495 503 491 490 503 487 485 486 484 483 504 488 492 498 499 495 494 496 493 493 486 487 482 489 487 481 497 494 476 500 492 482 489 486 495 485 488 490 486 491 493 494 490 493 481 493 489 481 487 499 495 489 471 481 492 489 492 488 489 487 492 484 497 491 497 494 488 485 500 497 500 491 491 498 483 497 505 482 487 488 509 401 494 479 497 487 489 505 496

Tree=0
num_leaves=4
num_cat=0
split_feature=13 13 13
split_gain=3.36002e+06 505509 274950
threshold=11.707500000000001 20.512500000000006 6.0250000000000012
decision_type=2 2 2
left_child=2 -2 -1
right_child=1 -3 -4
leaf_value=11.572354106790717 12.903057096835422 13.728541917736285 12.238901918098126
leaf_weight=22291 18614 12334 8567
leaf_count=22291 18614 12334 8567
internal_value=0 7.3877 -7.35869
internal_weight=0 30948 30858
internal_count=61806 30948 30858
shrinkage=1


Tree=1
num_leaves=4
num_cat=0
split_feature=13 13 13
split_gain=2.74907e+06 335942 307654
threshold=12.875000000000002 19.355000000000004 6.8325000000000005
decision_type=2 2 2
left_child=2 -2 -1
right_child=1 -3 -4
leaf_value=-0.81844028921423162 0.37352393468081474 1.0597556110262953 -0.15928118312380388
leaf_weight=23042 14053 14489 10222
leaf_count=23042 14053 14489 10222
internal_value=0 7.21881 -6.15881
internal_weight=0 28542 33264
internal_count=61806 28542 33264
shrinkage=0.1


Tree=2
num_leaves=4
num_cat=0
split_feature=13 13 13
split_gain=2.22241e+06 290496 233676
threshold=12.672500000000001 21.372500000000006 5.7000000000000011
decision_type=2 2 2
left_child=2 -2 -1
right_child=1 -3 -4
leaf_value=-0.74797833081914766 0.39661436022961433 1.0539828615146876 -0.17840243530515398
leaf_weight=22237 18284 10631 10654
leaf_count=22237 18284 10631 10654
internal_value=0 6.38305 -5.63482
internal_weight=0 28915 32891
internal_count=61806 28915 32891
shrinkage=0.1


Tree=3
num_leaves=4
num_cat=0
split_feature=13 13 13
split_gain=1.82346e+06 337007 83193.6
threshold=10.522500000000003 18.255000000000006 4.8350000000000009
decision_type=2 2 2
left_child=2 -2 -1
right_child=1 -3 -4
leaf_value=-0.68294185942880192 0.18726382495577826 0.82557883936151333 -0.2901246910894823
leaf_weight=21527 16643 16443 7193
leaf_count=21527 16643 16443 7193
internal_value=0 5.04492 -5.8456
internal_weight=0 33086 28720
internal_count=61806 33086 28720
shrinkage=0.1


Tree=4
num_leaves=4
num_cat=0
split_feature=13 13 13
split_gain=1.46801e+06 224782 160167
threshold=14.207500000000001 7.6175000000000006 23.285000000000004
decision_type=2 2 2
left_child=1 -1 -2
right_child=2 -3 -4
leaf_value=-0.58919432618521483 0.41770500213325362 -0.063957207890011414 0.97053798671769764
leaf_weight=24130 17977 12302 7397
leaf_count=24130 17977 12302 7397
internal_value=0 -4.11837 5.78866
internal_weight=0 36432 25374
internal_count=61806 36432 25374
shrinkage=0.1


Tree=5
num_leaves=4
num_cat=0
split_feature=13 13 13
split_gain=1.22243e+06 151499 151392
threshold=13.547500000000001 22.755000000000006 5.4475000000000007
decision_type=2 2 2
left_child=2 -2 -1
right_child=1 -3 -4
leaf_value=-0.55069135187256091 0.34681818561918731 0.85854286467230789 -0.11795558567365708
leaf_weight=21931 18691 8379 12805
leaf_count=21931 18691 8379 12805
internal_value=0 5.05213 -3.91169
internal_weight=0 27070 34736
internal_count=61806 27070 34736
shrinkage=0.1


Tree=6
num_leaves=4
num_cat=0
split_feature=13 13 13
split_gain=978016 192625 87361.4
threshold=15.352500000000001 8.432500000000001 25.130000000000006
decision_type=2 2 2
left_child=1 -1 -2
right_child=2 -3 -4
leaf_value=-0.46922785862289706 0.41889475344239924 -0.0034287940371277269 0.90184806174495824
leaf_weight=25234 18156 13697 4719
leaf_count=25234 18156 13697 4719
internal_value=0 -3.05347 5.18526
internal_weight=0 38931 22875
internal_count=61806 38931 22875
shrinkage=0.1


Tree=7
num_leaves=4
num_cat=0
split_feature=13 13 1
split_gain=796620 159612 53934.4
threshold=11.162500000000001 18.777500000000003 1.0000000180025095e-35
decision_type=2 2 10
left_child=2 -2 -1
right_child=1 -3 -4
leaf_value=-0.42807655458106808 0.12829312239752799 0.57434851107801232 -0.037922289032642359
leaf_weight=25575 16546 15572 4113
leaf_count=25575 16546 15572 4113
internal_value=0 3.44557 -3.74024
internal_weight=0 32118 29688
internal_count=61806 32118 29688
shrinkage=0.1


Tree=8
num_leaves=4
num_cat=0
split_feature=13 13 10
split_gain=649248 114203 73460
threshold=14.635000000000003 5.4475000000000007 80500.000000000015
decision_type=2 2 2
left_child=1 -1 -2
right_child=2 -3 -4
leaf_value=-0.41125875807972428 0.23792757245624468 -0.055401981560990458 0.58438322979265989
leaf_weight=21803 13249 15380 11374
leaf_count=21803 13249 15380 11374
internal_value=0 -2.64066 3.97964
internal_weight=0 37183 24623
internal_count=61806 37183 24623
shrinkage=0.1


Tree=9
num_leaves=4
num_cat=0
split_feature=13 13 1
split_gain=532171 113729 35631.5
threshold=10.382500000000002 17.362500000000004 1.0000000180025095e-35
decision_type=2 2 10
left_child=2 -2 -1
right_child=1 -3 -4
leaf_value=-0.36293825837324795 0.064637347515654336 0.43567576519746859 -0.029733952109796881
leaf_weight=24726 14992 18400 3688
leaf_count=24726 14992 18400 3688
internal_value=0 2.69091 -3.1969
internal_weight=0 33392 28414
internal_count=61806 33392 28414
shrinkage=0.1


Tree=10
num_leaves=4
num_cat=0
split_feature=13 10 1
split_gain=433067 105657 25879.5
threshold=9.6350000000000033 76500.000000000015 1.0000000180025095e-35
decision_type=2 2 10
left_child=2 -2 -1
right_child=1 -3 -4
leaf_value=-0.33491060751469304 0.09594381382578189 0.45442312984573718 -0.038300815674657263
leaf_weight=23823 21194 13433 3356
leaf_count=23823 21194 13433 3356
internal_value=0 2.3501 -2.98286
internal_weight=0 34627 27179
internal_count=61806 34627 27179
shrinkage=0.1


Tree=11
num_leaves=4
num_cat=0
split_feature=13 13 13
split_gain=365325 68961.8 55708.3
threshold=15.147500000000003 4.1675000000000013 26.242500000000003
decision_type=2 2 2
left_child=1 -1 -2
right_child=2 -3 -4
leaf_value=-0.31478406637630707 0.24766675068740507 -0.046061772709509022 0.68413678295692826
leaf_weight=20509 20000 17872 3425
leaf_count=20509 20000 17872 3425
internal_value=0 -1.89654 3.11484
internal_weight=0 38381 23425
internal_count=61806 38381 23425
shrinkage=0.1


Tree=12
num_leaves=4
num_cat=0
split_feature=13 13 13
split_gain=302451 65376.1 41172.4
threshold=16.045000000000005 8.2625000000000011 26.682500000000001
decision_type=2 2 2
left_child=1 -1 -2
right_child=2 -3 -4
leaf_value=-0.25947173234126292 0.24957811894344639 0.0019851183456006893 0.6474892350453415
leaf_weight=24916 18339 15521 3030
leaf_count=24916 18339 15521 3030
internal_value=0 -1.59116 3.06
internal_weight=0 40437 21369
internal_count=61806 40437 21369
shrinkage=0.1


Tree=13
num_leaves=4
num_cat=0
split_feature=13 13 13
split_gain=242092 56986.7 31788.5
threshold=16.372500000000006 6.2749999999999995 26.242500000000003
decision_type=2 2 2
left_child=1 -1 -2
right_child=2 -3 -4
leaf_value=-0.24744278618085841 0.22312398340879938 -0.011337238245550692 0.55517362300499806
leaf_weight=22673 17047 18616 3470
leaf_count=22673 17047 18616 3470
internal_value=0 -1.4099 2.79283
internal_weight=0 41289 20517
internal_count=61806 41289 20517
shrinkage=0.1


Tree=14
num_leaves=4
num_cat=0
split_feature=13 13 13
split_gain=195383 45971 27577.3
threshold=16.045000000000005 3.6350000000000002 24.982500000000005
decision_type=2 2 2
left_child=1 -1 -2
right_child=2 -3 -4
leaf_value=-0.24283809537000312 0.18315606974189377 -0.029088482558633111 0.45149202402349831
leaf_weight=18710 16324 21768 5004
leaf_count=18710 16324 21768 5004
internal_value=0 -1.27889 2.46113
internal_weight=0 40478 21328
internal_count=61806 40478 21328
shrinkage=0.1


Tree=15
num_leaves=4
num_cat=0
split_feature=13 10 1
split_gain=162516 46344.4 18556.2
threshold=9.9450000000000021 87500.000000000015 1.0000000180025095e-35
decision_type=2 2 10
left_child=2 -2 -1
right_child=1 -3 -4
leaf_value=-0.21205504727711927 0.079341084819177607 0.35218212415267458 0.034166575909044268
leaf_weight=24248 25855 8200 3503
leaf_count=24248 25855 8200 3503
internal_value=0 1.45038 -1.80975
internal_weight=0 34055 27751
internal_count=61806 34055 27751
shrinkage=0.1


Tree=16
num_leaves=4
num_cat=0
split_feature=13 13 13
split_gain=137725 34448.4 21770.3
threshold=16.907500000000002 3.8325000000000005 28.667500000000004
decision_type=2 2 2
left_child=1 -1 -2
right_child=2 -3 -4
leaf_value=-0.19829329577106206 0.19079793541331713 -0.017521658157424538 0.59112665155864497
leaf_weight=19514 17895 22927 1470
leaf_count=19514 17895 22927 1470
internal_value=0 -1.00639 2.21187
internal_weight=0 42441 19365
internal_count=61806 42441 19365
shrinkage=0.1


Tree=17
num_leaves=4
num_cat=0
split_feature=13 13 1
split_gain=109586 28342.5 20048.4
threshold=12.212500000000002 22.035000000000004 1.0000000180025095e-35
decision_type=2 2 10
left_child=2 -2 -1
right_child=1 -3 -4
leaf_value=-0.1622788399960691 0.070745279137572031 0.27938087710500475 0.061160689303876685
leaf_weight=27108 20426 9558 4714
leaf_count=27108 20426 9558 4714
internal_value=0 1.37252 -1.29179
internal_weight=0 29984 31822
internal_count=61806 29984 31822
shrinkage=0.1


Tree=18
num_leaves=4
num_cat=0
split_feature=13 13 1
split_gain=91511.2 28329.5 11433.2
threshold=9.6350000000000033 24.052500000000006 1.0000000180025095e-35
decision_type=2 2 10
left_child=2 -2 -1
right_child=1 -3 -4
leaf_value=-0.1601980841753399 0.066826647979534207 0.30078055133560816 0.036050312325801748
leaf_weight=23735 28346 6332 3393
leaf_count=23735 28346 6332 3393
internal_value=0 1.09545 -1.35653
internal_weight=0 34678 27128
internal_count=61806 34678 27128
shrinkage=0.1


Tree=19
num_leaves=4
num_cat=0
split_feature=13 1 13
split_gain=76915.6 20965.8 15992.2
threshold=16.372500000000006 1.0000000180025095e-35 28.667500000000004
decision_type=2 10 2
left_child=1 -1 -2
right_child=2 -3 -4
leaf_value=-0.11310315831436138 0.1336038282636284 0.069776251318554069 0.47832730287256348
leaf_weight=33592 19059 7707 1448
leaf_count=33592 19059 7707 1448
internal_value=0 -0.789752 1.57945
internal_weight=0 41299 20507
internal_count=61806 41299 20507
shrinkage=0.1


Tree=20
num_leaves=4
num_cat=0
split_feature=13 10 1
split_gain=63500.2 19895.1 9502.28
threshold=9.6350000000000033 71500.000000000015 7.5000000000000009
decision_type=2 2 10
left_child=2 -2 -1
right_child=1 -3 -4
leaf_value=-0.12219436008769398 0.013603045284022822 0.16501360562465819 0.40981229063123464
leaf_weight=26751 17482 17233 340
leaf_count=26751 17482 17233 340
internal_value=0 0.887653 -1.15518
internal_weight=0 34715 27091
internal_count=61806 34715 27091
shrinkage=0.1


Tree=21
num_leaves=4
num_cat=0
split_feature=13 13 13
split_gain=53207 16013.1 11069.3
threshold=16.805000000000003 2.9525000000000006 28.987500000000004
decision_type=2 2 2
left_child=1 -1 -2
right_child=2 -3 -4
leaf_value=-0.14752328883239735 0.1175872517876444 -0.017726358878088874 0.42468446204310695
leaf_weight=14453 18336 27763 1254
leaf_count=14453 18336 27763 1254
internal_value=0 -0.621634 1.37245
internal_weight=0 42216 19590
internal_count=61806 42216 19590
shrinkage=0.1


Tree=22
num_leaves=4
num_cat=0
split_feature=13 1 13
split_gain=44166.4 16165.7 9811.36
threshold=16.907500000000002 1.0000000180025095e-35 28.667500000000004
decision_type=2 10 2
left_child=1 -1 -2
right_child=2 -3 -4
leaf_value=-0.085744128120649854 0.10585417780644567 0.0714714423272476 0.37299514696332881
leaf_weight=34306 17930 8081 1489
leaf_count=34306 17930 8081 1489
internal_value=0 -0.557713 1.26338
internal_weight=0 42387 19419
internal_count=61806 42387 19419
shrinkage=0.1


Tree=23
num_leaves=4
num_cat=0
split_feature=13 10 1
split_gain=36075 13715.4 6612.85
threshold=8.9925000000000033 92500.000000000015 7.5000000000000009
decision_type=2 2 10
left_child=2 -2 -1
right_child=1 -3 -4
leaf_value=-0.096550697476626979 0.035304741038323095 0.19971824642224406 0.38864323825667235
leaf_weight=25767 29633 6122 284
leaf_count=25767 29633 6122 284
internal_value=0 0.634558 -0.912613
internal_weight=0 35755 26051
internal_count=61806 35755 26051
shrinkage=0.1


Tree=24
num_leaves=4
num_cat=0
split_feature=13 10 1
split_gain=31004.4 13170.4 5629.43
threshold=8.8700000000000028 91500.000000000015 4.0000000000000009
decision_type=2 2 10
left_child=2 -2 -1
right_child=1 -3 -4
leaf_value=-0.093085378376544209 0.032253277921644639 0.18801159383030663 0.11582939101391301
leaf_weight=24659 29113 6673 1361
leaf_count=24659 29113 6673 1361
internal_value=0 0.612975 -0.821579
internal_weight=0 35786 26020
internal_count=61806 35786 26020
shrinkage=0.1


Tree=25
num_leaves=4
num_cat=0
split_feature=10 2 13
split_gain=24711.7 13728.2 5916.78
threshold=74500.000000000015 8.5000000000000018 27.442500000000006
decision_type=2 10 2
left_child=1 -1 -2
right_child=2 -3 -4
leaf_value=-0.055911937516813059 0.085070886999811232 0.11223549195088847 0.26083524077933434
leaf_weight=41492 12555 5499 2260
leaf_count=41492 12555 5499 2260
internal_value=0 -0.362349 1.11883
internal_weight=0 46991 14815
internal_count=61806 46991 14815
shrinkage=0.1


Tree=26
num_leaves=4
num_cat=0
split_feature=13 13 13
split_gain=21878.7 7626.31 4842.65
threshold=8.9925000000000033 27.995000000000001 2.3725000000000005
decision_type=2 2 2
left_child=2 -2 -1
right_child=1 -3 -4
leaf_value=-0.12930349672233446 0.04044482622493234 0.24742737007884982 -0.0382931954747954
leaf_weight=8841 33824 1879 17262
leaf_count=8841 33824 1879 17262
internal_value=0 0.51338 -0.691181
internal_weight=0 35703 26103
internal_count=61806 35703 26103
shrinkage=0.1


Tree=27
num_leaves=4
num_cat=0
split_feature=10 2 13
split_gain=17377.7 10104.9 5333.54
threshold=74500.000000000015 8.5000000000000018 30.545000000000005
decision_type=2 10 2
left_child=1 -1 -2
right_child=2 -3 -4
leaf_value=-0.047558702696966992 0.080679618657590824 0.096914377878317248 0.37535160213086549
leaf_weight=41478 14205 5481 642
leaf_count=41478 14205 5481 642
internal_value=0 -0.30696 0.934215
internal_weight=0 46959 14847
internal_count=61806 46959 14847
shrinkage=0.1


Tree=28
num_leaves=4
num_cat=0
split_feature=13 2 1
split_gain=15848.8 9408.46 3816.42
threshold=3.1825000000000006 6.0000000000000009 4.0000000000000009
decision_type=2 10 10
left_child=2 -2 -1
right_child=1 -3 -4
leaf_value=-0.094028103884701272 0.005355404390820084 0.11294535969897271 0.17933732661234292
leaf_weight=15590 35112 10576 528
leaf_count=15590 35112 10576 528
internal_value=0 0.302607 -0.850731
internal_weight=0 45688 16118
internal_count=61806 45688 16118
shrinkage=0.1


Tree=29
num_leaves=4
num_cat=0
split_feature=13 3 2
split_gain=13493.9 5270.68 5232
threshold=14.517500000000002 84.000000000000014 15.000000000000002
decision_type=2 10 10
left_child=1 -1 -2
right_child=2 -3 -4
leaf_value=-0.056110768734426934 0.047779747082164953 0.039968687438527009 0.27404411011399471
leaf_weight=29976 23709 7053 1068
leaf_count=29976 23709 7053 1068
internal_value=0 -0.378103 0.575328
internal_weight=0 37029 24777
internal_count=61806 37029 24777
shrinkage=0.1


Tree=30
num_leaves=4
num_cat=0
split_feature=10 13 13
split_gain=11521.1 5343.58 4369.95
threshold=71500.000000000015 2.4475000000000007 31.545000000000005
decision_type=2 2 2
left_child=1 -1 -2
right_child=2 -3 -4
leaf_value=-0.094950590256664066 0.058678984138691097 -0.0097522850723552965 0.38726877600026594
leaf_weight=9403 18081 33908 414
leaf_count=9403 18081 33908 414
internal_value=0 -0.282492 0.660343
internal_weight=0 43311 18495
internal_count=61806 43311 18495
shrinkage=0.1


Tree=31
num_leaves=4
num_cat=0
split_feature=13 13 1
split_gain=10232.9 4996.41 3633.86
threshold=9.4250000000000025 24.222500000000004 7.5000000000000009
decision_type=2 2 10
left_child=2 -2 -1
right_child=1 -3 -4
leaf_value=-0.050903351525504771 0.017677673293060001 0.11703584411538413 0.28915250177126167
leaf_weight=26606 28739 6143 318
leaf_count=26606 28739 6143 318
internal_value=0 0.351754 -0.468869
internal_weight=0 34882 26924
internal_count=61806 34882 26924
shrinkage=0.1


Tree=32
num_leaves=4
num_cat=0
split_feature=1 13 13
split_gain=9673.65 4255.93 3287.1
threshold=inf 2.7225000000000006 30.545000000000005
decision_type=8 2 2
left_child=2 -2 -1
right_child=1 -3 -4
leaf_value=0.052023691289764251 -0.082327570059482047 -0.0088101837011350173 0.36296458544284971
leaf_weight=19550 10510 31400 346
leaf_count=19550 10510 31400 346
internal_value=0 -0.272465 0.574311
internal_weight=0 41910 19896
internal_count=61806 41910 19896
shrinkage=0.1


Tree=33
num_leaves=4
num_cat=0
split_feature=2 10 13
split_gain=7086.1 4920.43 1666.89
threshold=8.5000000000000018 70500.000000000015 31.545000000000005
decision_type=10 2 2
left_child=1 -1 -2
right_child=2 -3 -4
leaf_value=-0.033822888635699294 0.074668969547955627 0.033797489842930371 0.40746992515777453
leaf_weight=37319 9213 15121 153
leaf_count=37319 9213 15121 153
internal_value=0 -0.143246 0.801055
internal_weight=0 52440 9366
internal_count=61806 52440 9366
shrinkage=0.1


Tree=34
num_leaves=4
num_cat=0
split_feature=10 2 13
split_gain=7042.65 4149.25 1776.7
threshold=79500.000000000015 8.5000000000000018 32.900000000000006
decision_type=2 10 2
left_child=1 -1 -2
right_child=2 -3 -4
leaf_value=-0.026373397959956486 0.065153500607963696 0.060881051851198631 0.36501625165417423
leaf_weight=43725 11654 6226 201
leaf_count=43725 11654 6226 201
internal_value=0 -0.154978 0.702376
internal_weight=0 49951 11855
internal_count=61806 49951 11855
shrinkage=0.1


Tree=35
num_leaves=4
num_cat=0
split_feature=10 2 13
split_gain=6113.82 3960.03 2458.89
threshold=61500.000000000007 15.000000000000002 2.1875000000000004
decision_type=2 10 2
left_child=2 -2 -1
right_child=1 -3 -4
leaf_value=-0.086084009826982999 0.02653166006167795 0.22554933817908096 -0.016185215892654984
leaf_weight=6202 27874 1037 26693
leaf_count=6202 27874 1037 26693
internal_value=0 0.336702 -0.293639
internal_weight=0 28911 32895
internal_count=61806 28911 32895
shrinkage=0.1


Tree=36
num_leaves=4
num_cat=0
split_feature=13 10 1
split_gain=5516.96 3530.16 2275.42
threshold=3.1475000000000004 94500.000000000015 4.0000000000000009
decision_type=2 2 10
left_child=2 -2 -1
right_child=1 -3 -4
leaf_value=-0.056489189453952642 0.0087846214136422362 0.094939940297028555 0.15842774956876393
leaf_weight=15316 40594 5387 509
leaf_count=15316 40594 5387 509
internal_value=0 0.188783 -0.495765
internal_weight=0 45981 15825
internal_count=61806 45981 15825
shrinkage=0.1


Tree=37
num_leaves=4
num_cat=0
split_feature=3 10 13
split_gain=5048.83 3069.51 2317.81
threshold=84.000000000000014 94500.000000000015 31.545000000000005
decision_type=10 2 2
left_child=1 -1 -2
right_child=2 -3 -4
leaf_value=-0.024527899505322859 0.041905686430167247 0.080948954055295771 0.36013152696963013
leaf_weight=41601 17018 2955 232
leaf_count=41601 17018 2955 232
internal_value=0 -0.175326 0.461856
internal_weight=0 44556 17250
internal_count=61806 44556 17250
shrinkage=0.1


Tree=38
num_leaves=4
num_cat=0
split_feature=2 10 2
split_gain=4615.03 2370.14 1483.21
threshold=8.5000000000000018 94500.000000000015 15.000000000000002
decision_type=10 2 10
left_child=1 -1 -2
right_child=2 -3 -4
leaf_value=-0.019111248785473541 0.044623044322096593 0.06134439616989195 0.14867397768537979
leaf_weight=48428 7753 3961 1664
leaf_count=48428 7753 3961 1664
internal_value=0 -0.130282 0.63009
internal_weight=0 52389 9417
internal_count=61806 52389 9417
shrinkage=0.1


Tree=39
num_leaves=4
num_cat=0
split_feature=10 13 2
split_gain=3606.07 1922.41 1902.56
threshold=67500.000000000015 2.1875000000000004 15.000000000000002
decision_type=2 2 10
left_child=1 -1 -2
right_child=2 -3 -4
leaf_value=-0.069271670340272193 0.024522481014498713 -0.0096892689521729039 0.17034848400415098
leaf_weight=6494 21783 32596 933
leaf_count=6494 21783 32596 933
internal_value=0 -0.195877 0.305119
internal_weight=0 39090 22716
internal_count=61806 39090 22716
shrinkage=0.1


Tree=40
num_leaves=4
num_cat=0
split_feature=13 13 1
split_gain=3361.48 2397.84 1254.87
threshold=2.7575000000000003 32.900000000000006 4.0000000000000009
decision_type=2 2 10
left_child=2 -2 -1
right_child=1 -3 -4
leaf_value=-0.051032783127561356 0.01035500590337755 0.34427495184871887 0.1401696566671724
leaf_weight=12430 48807 216 353
leaf_count=12430 48807 216 353
internal_value=0 0.118263 -0.457528
internal_weight=0 49023 12783
internal_count=61806 49023 12783
shrinkage=0.1


Tree=41
num_leaves=4
num_cat=0
split_feature=13 13 1
split_gain=2805.07 2111 1398.15
threshold=3.3225000000000007 29.882500000000004 4.0000000000000009
decision_type=2 2 10
left_child=2 -2 -1
right_child=1 -3 -4
leaf_value=-0.039227674721704693 0.010834758000686756 0.16966437540363177 0.12344780344270417
leaf_weight=16332 44075 853 546
leaf_count=16332 44075 853 546
internal_value=0 0.138503 -0.339652
internal_weight=0 44928 16878
internal_count=61806 44928 16878
shrinkage=0.1


Tree=42
num_leaves=4
num_cat=0
split_feature=13 1 3
split_gain=3065.84 1969.72 774.713
threshold=25.627500000000001 2.5000000000000004 204.00000000000003
decision_type=2 10 10
left_child=1 -1 -2
right_child=2 -3 -4
leaf_value=-0.013958351974794201 0.068080784382403156 0.034729816160422304 0.20210928855007704
leaf_weight=47654 3598 10064 490
leaf_count=47654 3598 10064 490
internal_value=0 -0.0546884 0.841458
internal_weight=0 57718 4088
internal_count=61806 57718 4088
shrinkage=0.1


Tree=43
num_leaves=4
num_cat=0
split_feature=2 10 2
split_gain=2575.04 1845.84 704.637
threshold=8.5000000000000018 60500.000000000007 15.000000000000002
decision_type=10 2 10
left_child=1 -1 -2
right_child=2 -3 -4
leaf_value=-0.024694861677151892 0.037188187371142656 0.012898874549296183 0.11005132303352386
leaf_weight=28378 7624 24197 1607
leaf_count=28378 7624 24197 1607
internal_value=0 -0.073928 0.498727
internal_weight=0 52575 9231
internal_count=61806 52575 9231
shrinkage=0.1


Tree=44
num_leaves=4
num_cat=0
split_feature=2 10 13
split_gain=2194.14 1497.52 715.603
threshold=8.5000000000000018 60500.000000000007 25.472500000000004
decision_type=10 2 2
left_child=1 -1 -2
right_child=2 -3 -4
leaf_value=-0.021497183116200306 0.035995762253003834 0.01239196522927012 0.11815441783097741
leaf_weight=28354 8091 24141 1220
leaf_count=28354 8091 24141 1220
internal_value=0 -0.059125 0.467608
internal_weight=0 52495 9311
internal_count=61806 52495 9311
shrinkage=0.1


Tree=45
num_leaves=4
num_cat=0
split_feature=13 13 1
split_gain=1784.43 1344.87 588.467
threshold=2.2425000000000006 27.442500000000006 4.0000000000000009
decision_type=2 2 10
left_child=2 -2 -1
right_child=1 -3 -4
leaf_value=-0.050285159145326136 0.003087142744396146 0.080442921564717634 0.12798979746275826
leaf_weight=7265 52002 2349 190
leaf_count=7265 52002 2349 190
internal_value=0 0.0643039 -0.457416
internal_weight=0 54351 7455
internal_count=61806 54351 7455
shrinkage=0.1


Tree=46
num_leaves=4
num_cat=0
split_feature=1 10 2
split_gain=1479.36 1075.08 807.696
threshold=inf 94500.000000000015 15.000000000000002
decision_type=8 2 10
left_child=2 -2 -1
right_child=1 -3 -4
leaf_value=0.014225136839365861 -0.017123761528530426 0.047561195289578549 0.087789244552461732
leaf_weight=18305 39126 2750 1625
leaf_count=18305 39126 2750 1625
internal_value=0 -0.128759 0.202232
internal_weight=0 41876 19930
internal_count=61806 41876 19930
shrinkage=0.1


Tree=47
num_leaves=4
num_cat=0
split_feature=13 13 13
split_gain=1636.93 1228.94 818.902
threshold=27.442500000000006 1.8525000000000003 32.900000000000006
decision_type=2 2 2
left_child=1 -1 -2
right_child=2 -3 -4
leaf_value=-0.057753184298229204 0.061648006119096099 -0.00017868704912431759 0.26216303897317916
leaf_weight=3973 2149 55459 225
leaf_count=3973 2149 55459 225
internal_value=0 -0.0402751 0.806522
internal_weight=0 59432 2374
internal_count=61806 59432 2374
shrinkage=0.1


Tree=48
num_leaves=4
num_cat=0
split_feature=13 1 13
split_gain=1079.35 945.547 779.486
threshold=2.7225000000000006 4.0000000000000009 29.882500000000004
decision_type=2 10 2
left_child=1 -1 -2
right_child=2 -3 -4
leaf_value=-0.030778073947568315 0.0052404065290914915 0.13235973860814662 0.10217570559636434
leaf_weight=12133 48463 366 844
leaf_count=12133 48463 366 844
internal_value=0 -0.26001 0.0689967
internal_weight=0 12499 49307
internal_count=61806 12499 49307
shrinkage=0.1


Tree=49
num_leaves=4
num_cat=0
split_feature=2 13 1
split_gain=1066.51 721.937 561.245
threshold=6.0000000000000009 1.8825000000000001 4.0000000000000009
decision_type=10 2 10
left_child=1 -1 -2
right_child=2 -3 -4
leaf_value=-0.046311614098668512 0.0091140073053461428 -0.0020051792620485718 0.053483411927055705
leaf_weight=3996 6681 46156 4973
leaf_count=3996 6681 46156 4973
internal_value=0 -0.0553542 0.280473
internal_weight=0 50152 11654
internal_count=61806 50152 11654
shrinkage=0.1


Tree=50
num_leaves=4
num_cat=0
split_feature=10 1 13
split_gain=967.386 858.227 796.847
threshold=60500.000000000007 7.5000000000000009 32.900000000000006
decision_type=2 10 2
left_child=1 -1 -2
right_child=2 -3 -4
leaf_value=-0.0148108393698035 0.011979698821144108 0.076796208442996894 0.21742000248479215
leaf_weight=30644 29914 1058 190
leaf_count=30644 29914 1058 190
internal_value=0 -0.117536 0.132763
internal_weight=0 31702 30104
internal_count=61806 31702 30104
shrinkage=0.1


Tree=51
num_leaves=4
num_cat=0
split_feature=1 10 13
split_gain=971.631 725.214 504.804
threshold=inf 82500.000000000015 31.545000000000005
decision_type=8 2 2
left_child=2 -2 -1
right_child=1 -3 -4
leaf_value=0.014985164019485804 -0.015322974705953774 0.023409318282621657 0.16663145036981986
leaf_weight=19590 36420 5574 222
leaf_count=19590 36420 5574 222
internal_value=0 -0.101819 0.166844
internal_weight=0 41994 19812
internal_count=61806 41994 19812
shrinkage=0.1


Tree=52
num_leaves=4
num_cat=0
split_feature=2 1 13
split_gain=1122.55 684.7 650.919
threshold=6.0000000000000009 4.0000000000000009 29.360000000000003
decision_type=10 10 2
left_child=2 -2 -1
right_child=1 -3 -4
leaf_value=-0.0082078317844496256 0.0066034843238635043 0.055457257733103366 0.091317385941808174
leaf_weight=49419 6709 5012 666
leaf_count=49419 6709 5012 666
internal_value=0 0.274938 -0.0688441
internal_weight=0 11721 50085
internal_count=61806 11721 50085
shrinkage=0.1


Tree=53
num_leaves=4
num_cat=0
split_feature=13 13 1
split_gain=736.935 521.086 218.25
threshold=1.6725000000000001 32.900000000000006 2.5000000000000004
decision_type=2 2 10
left_child=2 -2 -1
right_child=1 -3 -4
leaf_value=-0.057811498618008141 0.00051688461035159664 0.16100882955005605 0.10790346011167347
leaf_weight=2581 58940 203 82
leaf_count=2581 58940 203 82
internal_value=0 0.0106775 -0.527087
internal_weight=0 59143 2663
internal_count=61806 59143 2663
shrinkage=0.1


Tree=54
num_leaves=4
num_cat=0
split_feature=10 2 1
split_gain=751.433 798.183 680.148
threshold=59500.000000000007 15.000000000000002 7.5000000000000009
decision_type=2 10 10
left_child=2 -2 -1
right_child=1 -3 -4
leaf_value=-0.01227340042869356 0.0094626593307858067 0.09610360006910805 0.072535601108665734
leaf_weight=29448 30279 1102 977
leaf_count=29448 30279 1102 977
internal_value=0 0.125052 -0.0955003
internal_weight=0 31381 30425
internal_count=61806 31381 30425
shrinkage=0.1


Tree=55
num_leaves=4
num_cat=0
split_feature=13 3 13
split_gain=777.903 489.453 467.462
threshold=24.502500000000001 204.00000000000003 1.5225000000000002
decision_type=2 10 2
left_child=2 -2 -1
right_child=1 -3 -4
leaf_value=-0.054230305441369635 0.024451424569340796 0.11572467614246347 -0.0020667549022268766
leaf_weight=1774 4986 666 54380
leaf_count=1774 4986 666 54380
internal_value=0 0.352066 -0.0371469
internal_weight=0 5652 56154
internal_count=61806 5652 56154
shrinkage=0.1


Tree=56
num_leaves=4
num_cat=0
split_feature=10 10 9
split_gain=662.161 462.435 209.67
threshold=104500.00000000001 53500.000000000007 98.500000000000014
decision_type=2 2 2
left_child=1 -1 -2
right_child=2 -3 -4
leaf_value=-0.013059590000722468 0.047997807001783278 0.0049839174216160355 0.35810162876626817
leaf_weight=23546 2438 35800 22
leaf_count=23546 2438 35800 22
internal_value=0 -0.0217499 0.507711
internal_weight=0 59346 2460
internal_count=61806 59346 2460
shrinkage=0.1


Tree=57
num_leaves=4
num_cat=0
split_feature=1 0 13
split_gain=703.085 383.67 359.323
threshold=inf 14046.500000000002 1.9825000000000002
decision_type=8 2 2
left_child=1 -1 -2
right_child=2 -3 -4
leaf_value=0.013337596073340525 -0.034127699691613896 0.094142670630133124 -0.0038516232504467842
leaf_weight=19351 4378 606 37471
leaf_count=19351 4378 606 37471
internal_value=0 0.157913 -0.0701893
internal_weight=0 19957 41849
internal_count=61806 19957 41849
shrinkage=0.1


Tree=58
num_leaves=4
num_cat=0
split_feature=13 2 6
split_gain=799.81 465.789 318.067
threshold=30.545000000000005 15.000000000000002 1.0000000180025095e-35
decision_type=2 10 8
left_child=1 -1 -2
right_child=2 -3 -4
leaf_value=-0.00176812287774967 -0.1205693303414111 0.053090714668410227 0.13557980219902419
leaf_weight=59596 53 1589 568
leaf_count=59596 53 1589 568
internal_value=0 -0.00343416 1.13718
internal_weight=0 61185 621
internal_count=61806 61185 621
shrinkage=0.1


Tree=59
num_leaves=4
num_cat=0
split_feature=10 2 13
split_gain=433.356 546.962 520.267
threshold=50500.000000000007 15.000000000000002 11.975000000000003
decision_type=2 10 2
left_child=2 -2 -1
right_child=1 -3 -4
leaf_value=-0.0088174594588661462 0.0030337962627413001 0.06780802356563205 -0.078444772140533789
leaf_weight=18837 40484 1347 1138
leaf_count=18837 40484 1347 1138
internal_value=0 0.0511959 -0.127842
internal_weight=0 41831 19975
internal_count=61806 41831 19975
shrinkage=0.1


Tree=60
num_leaves=4
num_cat=0
split_feature=1 10 0
split_gain=363.405 324.794 269.581
threshold=inf 102500.00000000001 14326.500000000002
decision_type=8 2 2
left_child=2 -2 -1
right_child=1 -3 -4
leaf_value=0.01108261034534418 -0.0057676933887013462 0.042368897972753554 0.12239634816619482
leaf_weight=19666 40468 1452 220
leaf_count=19666 40468 1452 220
internal_value=0 -0.0410037 0.123141
internal_weight=0 41920 19886
internal_count=61806 41920 19886
shrinkage=0.1


Tree=61
num_leaves=4
num_cat=0
split_feature=13 1 1
split_gain=387.134 313.544 90.8285
threshold=1.4625000000000001 inf 2.5000000000000004
decision_type=2 8 10
left_child=2 -2 -1
right_child=1 -3 -4
leaf_value=-0.054211403556171149 0.010655576046683008 -0.0047349985248550334 0.091529468700967065
leaf_weight=1520 19640 40602 44
leaf_count=1520 19640 40602 44
internal_value=0 0.00282612 -0.501113
internal_weight=0 60242 1564
internal_count=61806 60242 1564
shrinkage=0.1


Tree=62
num_leaves=4
num_cat=0
split_feature=13 13 1
split_gain=362.272 298.725 245.974
threshold=2.2725000000000004 27.995000000000001 7.5000000000000009
decision_type=2 2 10
left_child=2 -2 -1
right_child=1 -3 -4
leaf_value=-0.022167014870557805 0.00052631838421784277 0.040975530466951342 0.30534491798152097
leaf_weight=7714 52177 1892 23
leaf_count=7714 52177 1892 23
internal_value=0 0.0194173 -0.211934
internal_weight=0 54069 7737
internal_count=61806 54069 7737
shrinkage=0.1


Tree=63
num_leaves=4
num_cat=0
split_feature=13 10 1
split_gain=281.379 243.298 41.8294
threshold=1.2250000000000003 97500.000000000015 2.5000000000000004
decision_type=2 2 10
left_child=2 -2 -1
right_child=1 -3 -4
leaf_value=-0.064908716373084263 -0.00093265723541815582 0.02408616114686957 0.075045320798050277
leaf_weight=729 56883 4172 22
leaf_count=729 56883 4172 22
internal_value=0 0.00776924 -0.608089
internal_weight=0 61055 751
internal_count=61806 61055 751
shrinkage=0.1


Tree=64
num_leaves=4
num_cat=0
split_feature=13 13 1
split_gain=240 214.923 171.828
threshold=2.2425000000000006 31.545000000000005 4.0000000000000009
decision_type=2 2 10
left_child=2 -2 -1
right_child=1 -3 -4
leaf_value=-0.019559914802054424 0.001358485249252684 0.072502091786362854 0.082439659841182317
leaf_weight=7263 53946 428 169
leaf_count=7263 53946 428 169
internal_value=0 0.0191849 -0.172405
internal_weight=0 54374 7432
internal_count=61806 54374 7432
shrinkage=0.1


Tree=65
num_leaves=4
num_cat=0
split_feature=13 13 1
split_gain=249.803 216.67 118.033
threshold=2.0375000000000005 32.900000000000006 4.0000000000000009
decision_type=2 2 10
left_child=2 -2 -1
right_child=1 -3 -4
leaf_value=-0.022585575615042038 0.0016533472811176642 0.10515210536019555 0.075333281157035692
leaf_weight=5356 56121 203 126
leaf_count=5356 56121 203 126
internal_value=0 0.0202637 -0.20335
internal_weight=0 56324 5482
internal_count=61806 56324 5482
shrinkage=0.1


Tree=66
num_leaves=4
num_cat=0
split_feature=13 10 6
split_gain=350.482 225.548 180.712
threshold=28.987500000000004 39500.000000000007 1.0000000180025095e-35
decision_type=2 2 8
left_child=1 -1 -2
right_child=2 -3 -4
leaf_value=-0.015052430746863205 -0.067002468552926311 0.0015912281198429538 0.064556089032399191
leaf_weight=9694 115 50863 1134
leaf_count=9694 115 50863 1134
internal_value=0 -0.010731 0.52443
internal_weight=0 60557 1249
internal_count=61806 60557 1249
shrinkage=0.1


Tree=67
num_leaves=4
num_cat=0
split_feature=13 3 10
split_gain=364.229 319.353 239.243
threshold=24.052500000000006 204.00000000000003 118500.00000000001
decision_type=2 10 2
left_child=2 -2 -1
right_child=1 -3 -4
leaf_value=-0.0010019553592296047 0.016351432515275609 0.086238784628810919 0.21359392443241984
leaf_weight=55454 5559 741 52
leaf_count=55454 5559 741 52
internal_value=0 0.245715 -0.00800914
internal_weight=0 6300 55506
internal_count=61806 6300 55506
shrinkage=0.1


Tree=68
num_leaves=4
num_cat=0
split_feature=10 10 0
split_gain=392.953 138.15 136.365
threshold=106500.00000000001 50500.000000000007 14265.500000000002
decision_type=2 2 2
left_child=1 -1 -2
right_child=2 -3 -4
leaf_value=-0.0069228851200760864 0.046564901462364673 0.0032856798261596057 -0.20954968219711667
leaf_weight=19864 2070 39851 21
leaf_count=19864 2070 39851 21
internal_value=0 -0.00110166 0.439927
internal_weight=0 59715 2091
internal_count=61806 59715 2091
shrinkage=0.1


Tree=69
num_leaves=4
num_cat=0
split_feature=10 6 9
split_gain=356.575 277.82 196.588
threshold=88500.000000000015 1.0000000180025095e-35 98.500000000000014
decision_type=2 8 2
left_child=1 -1 -2
right_child=2 -3 -4
leaf_value=0.022991038916784612 0.018536072602588331 -0.0052903393826594577 0.25952262538759147
leaf_weight=3731 7720 50321 34
leaf_count=3731 7720 50321 34
internal_value=0 -0.0333819 0.195928
internal_weight=0 54052 7754
internal_count=61806 54052 7754
shrinkage=0.1


Tree=70
num_leaves=4
num_cat=0
split_feature=13 10 13
split_gain=200.423 366.928 185.32
threshold=31.545000000000005 89500.000000000015 1.2250000000000003
decision_type=2 2 2
left_child=2 -2 -1
right_child=1 -3 -4
leaf_value=-0.048826978915156083 0.34189275868914348 0.036936635646270588 0.00022889155619917735
leaf_weight=780 44 382 60600
leaf_count=780 44 382 60600
internal_value=0 0.684345 -0.00394497
internal_weight=0 426 61380
internal_count=61806 426 61380
shrinkage=0.1


Tree=71
num_leaves=4
num_cat=0
split_feature=13 10 10
split_gain=206.965 287.706 162.804
threshold=32.900000000000006 101500.00000000001 37500.000000000007
decision_type=2 2 2
left_child=2 -2 -1
right_child=1 -3 -4
leaf_value=-0.013999047942315095 0.19968669835294858 -0.025534402452549843 0.0014817106877743139
leaf_weight=7775 122 106 53803
leaf_count=7775 122 106 53803
internal_value=0 0.949786 -0.00472931
internal_weight=0 228 61578
internal_count=61806 228 61578
shrinkage=0.1


Tree=72
num_leaves=4
num_cat=0
split_feature=2 13 11
split_gain=200.869 654.56 124.997
threshold=15.000000000000002 8.9925000000000033 1.0000000180025095e-35
decision_type=10 2 2
left_child=2 -2 -1
right_child=1 -3 -4
leaf_value=0.0060246882975160511 -0.13244036361759548 0.059823416242544718 -0.0032307421783580011
leaf_weight=24878 202 1435 35291
leaf_count=24878 202 1435 35291
internal_value=0 0.360987 0.00596089
internal_weight=0 1637 60169
internal_count=61806 1637 60169
shrinkage=0.1


Tree=73
num_leaves=4
num_cat=0
split_feature=5 11 13
split_gain=132.936 290.776 107.674
threshold=1.0000000180025095e-35 1.0000000180025095e-35 1.3325000000000002
decision_type=8 2 2
left_child=1 -1 -2
right_child=2 -3 -4
leaf_value=0.034396052401246109 -0.033774317515267036 -0.0064247320888327882 -0.00041066814848469079
leaf_weight=3432 985 3550 53839
leaf_count=3432 985 3550 53839
internal_value=0 0.136407 -0.010101
internal_weight=0 6982 54824
internal_count=61806 6982 54824
shrinkage=0.1


Tree=74
num_leaves=4
num_cat=0
split_feature=9 10 1
split_gain=142.243 161.462 153.658
threshold=86.500000000000014 116500.00000000001 7.5000000000000009
decision_type=2 2 10
left_child=2 -2 -1
right_child=1 -3 -4
leaf_value=-0.0014985238581258266 -0.033490635108819257 0.19323368400800975 0.020819740421467753
leaf_weight=56807 1705 32 3262
leaf_count=56807 1705 32 3262
internal_value=0 -0.293138 -0.00286548
internal_weight=0 1737 60069
internal_count=61806 1737 60069
shrinkage=0.1


Tree=75
num_leaves=4
num_cat=0
split_feature=10 13 2
split_gain=193.228 709.296 382.1
threshold=61500.000000000007 15.7475 15.000000000000002
decision_type=2 2 10
left_child=1 -1 -2
right_child=2 -3 -4
leaf_value=0.00072706431667028584 0.0066008414744065788 -0.07244518193209562 0.067494099898455298
leaf_weight=31454 27899 1383 1070
leaf_count=31454 27899 1383 1070
internal_value=0 -0.0235474 0.0885
internal_weight=0 32837 28969
internal_count=61806 32837 28969
shrinkage=0.1


Tree=76
num_leaves=4
num_cat=0
split_feature=13 1 1
split_gain=167.334 333.896 123.539
threshold=32.900000000000006 7.5000000000000009 7.5000000000000009
decision_type=2 10 10
left_child=2 -2 -1
right_child=1 -3 -4
leaf_value=-0.0018645705980567995 0.13416205126359979 -0.28708067394438247 0.01795885459246804
leaf_weight=58281 181 21 3323
leaf_count=58281 181 21 3323
internal_value=0 0.903695 -0.00795269
internal_weight=0 202 61604
internal_count=61806 202 61604
shrinkage=0.1


Tree=77
num_leaves=4
num_cat=0
split_feature=13 10 3
split_gain=134.181 365.839 101.668
threshold=32.900000000000006 114500.00000000001 204.00000000000003
decision_type=2 2 8
left_child=2 -2 -1
right_child=1 -3 -4
leaf_value=0.0045815324251547362 0.15069331055335505 -0.19993991034256448 -0.0047219498176146154
leaf_weight=15795 152 37 45822
leaf_count=15795 152 37 45822
internal_value=0 0.820508 -0.0233708
internal_weight=0 189 61617
internal_count=61806 189 61617
shrinkage=0.1


Tree=78
num_leaves=4
num_cat=0
split_feature=9 6 0
split_gain=181.948 168.409 116.807
threshold=87.500000000000014 1.0000000180025095e-35 9774.5000000000018
decision_type=2 8 2
left_child=1 -1 -2
right_child=2 -3 -4
leaf_value=0.018313420820413574 -0.057480444711436152 -0.0021324741326396849 0.00061827419142164019
leaf_weight=4341 939 55978 548
leaf_count=4341 939 55978 548
internal_value=0 -0.00661037 -0.360695
internal_weight=0 60319 1487
internal_count=61806 60319 1487
shrinkage=0.1


Tree=79
num_leaves=4
num_cat=0
split_feature=9 13 1
split_gain=110.286 190.287 141.08
threshold=77.500000000000014 18.255000000000006 7.5000000000000009
decision_type=2 2 10
left_child=2 -2 -1
right_child=1 -3 -4
leaf_value=-0.00032486818982003368 0.0009998720805154931 -0.037757497736762617 0.021936021605177464
leaf_weight=53486 3228 2085 3007
leaf_count=53486 3228 2085 3007
internal_value=0 -0.142098 0.00860031
internal_weight=0 5313 56493
internal_count=61806 5313 56493
shrinkage=0.1


Tree=80
num_leaves=4
num_cat=0
split_feature=2 10 10
split_gain=154.515 483.222 135.058
threshold=15.000000000000002 42500.000000000007 119500.00000000001
decision_type=10 2 2
left_child=2 -2 -1
right_child=1 -3 -4
leaf_value=-0.002102577808425076 -0.13575864008436941 0.046523200281885793 0.18901131241708191
leaf_weight=60104 161 1504 37
leaf_count=60104 161 1504 37
internal_value=0 0.288971 -0.01985
internal_weight=0 1665 60141
internal_count=61806 1665 60141
shrinkage=0.1


Tree=81
num_leaves=4
num_cat=0
split_feature=10 0 13
split_gain=275.246 270.584 117.71
threshold=105500.00000000001 14326.500000000002 22.755000000000006
decision_type=2 2 2
left_child=2 -2 -1
right_child=1 -3 -4
leaf_value=-0.00019104441109345704 0.037125681199177855 -0.30760874333588978 -0.014652526814082282
leaf_weight=53228 2261 23 6294
leaf_count=53228 2261 23 6294
internal_value=0 0.336542 -0.0172024
internal_weight=0 2284 59522
internal_count=61806 2284 59522
shrinkage=0.1


Tree=82
num_leaves=4
num_cat=0
split_feature=10 1 2
split_gain=107.314 382.046 207.998
threshold=47500.000000000007 7.5000000000000009 15.000000000000002
decision_type=2 10 10
left_child=1 -1 -2
right_child=2 -3 -4
leaf_value=-0.0077491803937808348 0.0027597519052181322 0.089170266756658359 0.041745247467016383
leaf_weight=16496 43480 417 1413
leaf_count=16496 43480 417 1413
internal_value=0 -0.0535957 0.0398681
internal_weight=0 16913 44893
internal_count=61806 16913 44893
shrinkage=0.1


Tree=83
num_leaves=4
num_cat=0
split_feature=13 1 10
split_gain=139.198 390.043 336.879
threshold=16.675000000000004 7.5000000000000009 62500.000000000007
decision_type=2 10 2
left_child=1 -1 -2
right_child=2 -3 -4
leaf_value=0.00052006324687879667 -0.064370193867851047 0.053061121753436039 -0.0048096649566078372
leaf_weight=40487 1000 1464 18855
leaf_count=40487 1000 1464 18855
internal_value=0 0.0235363 -0.0780944
internal_weight=0 41951 19855
internal_count=61806 41951 19855
shrinkage=0.1


Tree=84
num_leaves=4
num_cat=0
split_feature=10 13 0
split_gain=189.479 847.265 162.487
threshold=52500.000000000007 11.975000000000003 111.50000000000001
decision_type=2 2 2
left_child=1 -1 -2
right_child=2 -3 -4
leaf_value=-0.0014914006041126817 -0.067529826234035847 -0.069269237865498004 0.0044670918313513813
leaf_weight=20367 316 2028 39095
leaf_count=20367 316 2028 39095
internal_value=0 -0.0762909 0.0388982
internal_weight=0 22395 39411
internal_count=61806 22395 39411
shrinkage=0.1


Tree=85
num_leaves=4
num_cat=0
split_feature=13 13 13
split_gain=196.036 323.441 194.318
threshold=22.035000000000004 18.405000000000005 22.755000000000006
decision_type=2 2 2
left_child=1 -1 -2
right_child=2 -3 -4
leaf_value=-0.00012478380910223508 0.05130417670998854 -0.023591578671527509 0.0072045913793037375
leaf_weight=45633 1136 6741 8296
leaf_count=45633 1136 6741 8296
internal_value=0 -0.0314517 0.12516
internal_weight=0 52374 9432
internal_count=61806 52374 9432
shrinkage=0.1


Tree=86
num_leaves=4
num_cat=0
split_feature=10 10 9
split_gain=263.503 179.254 112.618
threshold=119500.00000000001 103500.00000000001 64.500000000000014
decision_type=2 2 2
left_child=1 -1 -2
right_child=2 -3 -4
leaf_value=-0.0010272346969844128 -0.089422897859053177 0.025899909259902598 -0.41317873700034052
leaf_weight=59183 22 2580 21
leaf_count=59183 22 2580 21
internal_value=0 0.000975816 -2.47536
internal_weight=0 61763 43
internal_count=61806 61763 43
shrinkage=0.1


Tree=87
num_leaves=4
num_cat=0
split_feature=0 5 0
split_gain=132.825 259.168 104.625
threshold=9081.5000000000018 1.0000000180025095e-35 8276.5000000000018
decision_type=2 8 2
left_child=2 -2 -1
right_child=1 -3 -4
leaf_value=-0.0018397908497704526 0.035615007974388796 0.0023248631237168609 -0.02017237390908665
leaf_weight=35210 2639 20542 3415
leaf_count=35210 2639 20542 3415
internal_value=0 0.0611472 -0.0346065
internal_weight=0 23181 38625
internal_count=61806 23181 38625
shrinkage=0.1


Tree=88
num_leaves=4
num_cat=0
split_feature=11 9 10
split_gain=162.118 137.369 97.749
threshold=1.0000000180025095e-35 94.500000000000014 105500.00000000001
decision_type=2 2 2
left_child=1 -1 -2
right_child=2 -3 -4
leaf_value=0.0055617619901458457 -0.0049786391998351137 0.090908777253016049 0.03058681003189398
leaf_weight=25373 35453 190 790
leaf_count=25373 35453 190 790
internal_value=0 0.0619611 -0.0420341
internal_weight=0 25563 36243
internal_count=61806 25563 36243
shrinkage=0.1


Tree=89
num_leaves=4
num_cat=0
split_feature=1 13 9
split_gain=137.069 355.983 155.006
threshold=1.0000000180025095e-35 28.295000000000005 77.500000000000014
decision_type=8 2 2
left_child=1 -1 -2
right_child=2 -3 -4
leaf_value=0.021965300750164785 0.00092550613662068957 -0.19099529783707114 -0.01762323034466148
leaf_weight=4167 52632 80 4927
leaf_count=4167 52632 80 4927
internal_value=0 0.179538 -0.00662249
internal_weight=0 4247 57559
internal_count=61806 4247 57559
shrinkage=0.1


Tree=90
num_leaves=4
num_cat=0
split_feature=0 6 6
split_gain=109.694 169.141 124.668
threshold=11452.500000000002 1.0000000180025095e-35 1.0000000180025095e-35
decision_type=2 10 10
left_child=2 -2 -1
right_child=1 -3 -4
leaf_value=3.3479388585012762e-05 0.00080657516118877903 0.026915110831313815 -0.011650985100126859
leaf_weight=36492 9814 3321 12179
leaf_count=36492 9814 3321 12179
internal_value=0 0.0740775 -0.0289034
internal_weight=0 13135 48671
internal_count=61806 13135 48671
shrinkage=0.1


Tree=91
num_leaves=4
num_cat=0
split_feature=10 3 3
split_gain=115.909 157.755 110.567
threshold=75500.000000000015 204.00000000000003 204.00000000000003
decision_type=2 10 8
left_child=2 -2 -1
right_child=1 -3 -4
leaf_value=0.0087173824899243052 -0.014252635527267951 0.0201724151072433 -0.0028147285821934027
leaf_weight=10714 12488 1490 37114
leaf_count=10714 12488 1490 37114
internal_value=0 -0.105831 -0.00231408
internal_weight=0 13978 47828
internal_count=61806 13978 47828
shrinkage=0.1


Tree=92
num_leaves=4
num_cat=0
split_feature=10 13 13
split_gain=146.653 311.975 237
threshold=68500.000000000015 14.7475 11.052500000000002
decision_type=2 2 2
left_child=1 -1 -2
right_child=2 -3 -4
leaf_value=0.0021367851725576661 -0.019861932614225607 -0.023141895044459904 0.012574738731232653
leaf_weight=34423 2553 5689 19141
leaf_count=34423 2553 5689 19141
internal_value=0 -0.0144844 0.0875752
internal_weight=0 40112 21694
internal_count=61806 40112 21694
shrinkage=0.1


Tree=93
num_leaves=4
num_cat=0
split_feature=13 10 0
split_gain=90.5719 59.9095 10.1318
threshold=1.1275000000000002 42500.000000000007 4977.5000000000009
decision_type=2 2 2
left_child=2 -2 -1
right_child=1 -3 -4
leaf_value=-0.02334681238214939 -0.005093321200054509 0.0027229446512355496 -0.052386069329925622
leaf_weight=195 12257 49041 313
leaf_count=195 12257 49041 313
internal_value=0 0.0116002 -0.412391
internal_weight=0 61298 508
internal_count=61806 61298 508
shrinkage=0.1


Tree=94
num_leaves=4
num_cat=0
split_feature=10 3 1
split_gain=86.7593 325.524 190.041
threshold=76500.000000000015 204.00000000000003 7.5000000000000009
decision_type=2 8 10
left_child=2 -2 -1
right_child=1 -3 -4
leaf_value=-0.00044152538891752114 -0.028810613716962436 0.0035627905932019695 0.031147231060044592
leaf_weight=46410 4887 8523 1986
leaf_count=46410 4887 8523 1986
internal_value=0 -0.0823503 0.00854765
internal_weight=0 13410 48396
internal_count=61806 13410 48396
shrinkage=0.1


Tree=95
num_leaves=4
num_cat=0
split_feature=10 9 13
split_gain=167.547 206.451 134.636
threshold=77500.000000000015 46.500000000000007 21.757500000000007
decision_type=2 2 2
left_child=2 -2 -1
right_child=1 -3 -4
leaf_value=0.00073123785594052476 -0.053691498224494982 -0.0075839698023628449 0.039876493757444974
leaf_weight=48027 1058 11826 895
leaf_count=48027 1058 11826 895
internal_value=0 -0.113702 0.0144738
internal_weight=0 12884 48922
internal_count=61806 12884 48922
shrinkage=0.1


Tree=96
num_leaves=4
num_cat=0
split_feature=9 13 6
split_gain=135.515 358.33 80.8998
threshold=61.500000000000007 32.900000000000006 1.0000000180025095e-35
decision_type=2 2 8
left_child=2 -2 -1
right_child=1 -3 -4
leaf_value=0.012586538633690428 0.0053067602849204932 0.19997779809722777 -0.0049479314949950198
leaf_weight=2823 20150 95 38738
leaf_count=2823 20150 95 38738
internal_value=0 0.0622026 -0.0375692
internal_weight=0 20245 41561
internal_count=61806 20245 41561
shrinkage=0.1


Tree=97
num_leaves=4
num_cat=0
split_feature=0 13 2
split_gain=91.0471 98.7411 75.7382
threshold=57.500000000000007 3.2275000000000005 6.0000000000000009
decision_type=2 2 8
left_child=2 -2 -1
right_child=1 -3 -4
leaf_value=0.070718316817165991 -0.0061552406946651277 0.0029252817297534175 -0.082374810987083172
leaf_weight=38 16282 45270 216
leaf_count=38 16282 45270 216
internal_value=0 0.00523263 -0.594711
internal_weight=0 61552 254
internal_count=61806 61552 254
shrinkage=0.1


Tree=98
num_leaves=4
num_cat=0
split_feature=1 9 13
split_gain=128.668 270.668 89.7325
threshold=1.0000000180025095e-35 93.500000000000014 0.89500000000000013
decision_type=8 2 2
left_child=1 -1 -2
right_child=2 -3 -4
leaf_value=0.015245546578097655 -0.062389857387602457 0.36691731769930236 -0.00073085313021614738
leaf_weight=4215 237 22 57332
leaf_count=4215 237 22 57332
internal_value=0 0.170716 -0.00984691
internal_weight=0 4237 57569
internal_count=61806 4237 57569
shrinkage=0.1


Tree=99
num_leaves=4
num_cat=0
split_feature=13 13 1
split_gain=98.6586 103.696 26.4667
threshold=1.4625000000000001 17.362500000000004 2.5000000000000004
decision_type=2 2 10
left_child=2 -2 -1
right_child=1 -3 -4
leaf_value=-0.025157886646548222 0.0055784379789391028 -0.0034220395113629142 0.044261349332437187
leaf_weight=1506 41790 18453 57
leaf_count=1506 41790 18453 57
internal_value=0 0.0282151 -0.226263
internal_weight=0 60243 1563
internal_count=61806 60243 1563
shrinkage=0.1


Tree=100
num_leaves=4
num_cat=0
split_feature=11 9 13
split_gain=83.0719 176.103 107.988
threshold=1.0000000180025095e-35 88.500000000000014 12.425000000000002
decision_type=2 2 2
left_child=1 -1 -2
right_child=2 -3 -4
leaf_value=0.0054321361072125381 0.00070155544683312993 -0.043034577255383052 -0.010625530334924721
leaf_weight=24859 22849 773 13325
leaf_count=24859 22849 773 13325
internal_value=0 0.039705 -0.0347087
internal_weight=0 25632 36174
internal_count=61806 25632 36174
shrinkage=0.1


Tree=101
num_leaves=4
num_cat=0
split_feature=13 1 10
split_gain=85.1426 260.373 68.2029
threshold=32.900000000000006 7.5000000000000009 76500.000000000015
decision_type=2 10 2
left_child=2 -2 -1
right_child=1 -3 -4
leaf_value=0.0011020323281479938 0.10422493934712776 -0.24608471120397249 -0.0070162212803964842
leaf_weight=48439 183 24 13160
leaf_count=48439 183 24 13160
internal_value=0 0.636093 -0.0063235
internal_weight=0 207 61599
internal_count=61806 207 61599
shrinkage=0.1


Tree=102
num_leaves=4
num_cat=0
split_feature=5 10 10
split_gain=112.498 414.875 102.925
threshold=1.0000000180025095e-35 50500.000000000007 102500.00000000001
decision_type=8 2 2
left_child=1 -1 -2
right_child=2 -3 -4
leaf_value=-0.037213467834366624 -0.0032079907721238553 0.023223229544268111 0.018418707127322419
leaf_weight=1421 52428 5660 2297
leaf_count=1421 52428 5660 2297
internal_value=0 0.110949 -0.0230024
internal_weight=0 7081 54725
internal_count=61806 7081 54725
shrinkage=0.1


Tree=103
num_leaves=4
num_cat=0
split_feature=13 1 10
split_gain=91.6806 98.8936 71.1093
threshold=1.9825000000000002 4.0000000000000009 117500.00000000001
decision_type=2 10 2
left_child=1 -1 -2
right_child=2 -3 -4
leaf_value=-0.014115310336742223 0.0023572296050471731 0.081330226086549939 -0.039389302980136626
leaf_weight=4932 56352 111 411
leaf_count=4932 56352 111 411
internal_value=0 -0.120145 0.0205496
internal_weight=0 5043 56763
internal_count=61806 5043 56763
shrinkage=0.1


Tree=104
num_leaves=4
num_cat=0
split_feature=13 1 9
split_gain=92.5825 603.699 129.291
threshold=3.1825000000000006 7.5000000000000009 86.500000000000014
decision_type=2 10 2
left_child=1 -1 -2
right_child=2 -3 -4
leaf_value=-0.0067422362272742953 0.0040905795203709742 0.33453160684842331 -0.026555374067691751
leaf_weight=16230 44103 52 1421
leaf_count=16230 44103 52 1421
internal_value=0 -0.0565231 0.0313399
internal_weight=0 16282 45524
internal_count=61806 16282 45524
shrinkage=0.1


Tree=105
num_leaves=4
num_cat=0
split_feature=9 3 10
split_gain=113.683 131.21 92.6288
threshold=98.500000000000014 204.00000000000003 84500.000000000015
decision_type=2 8 2
left_child=2 -2 -1
right_child=1 -3 -4
leaf_value=-0.0018173301406345542 0.31277684848755599 0.039176794056995562 0.0088251804914399132
leaf_weight=52013 24 65 9704
leaf_count=52013 24 65 9704
internal_value=0 1.12957 -0.00143967
internal_weight=0 89 61717
internal_count=61806 89 61717
shrinkage=0.1


Tree=106
num_leaves=4
num_cat=0
split_feature=13 0 9
split_gain=129.731 249.135 78.4687
threshold=28.295000000000005 2131.5000000000005 61.500000000000007
decision_type=2 2 2
left_child=2 -2 -1
right_child=1 -3 -4
leaf_value=-0.0014161604193246987 0.057231949259669096 -0.043564364185165141 0.0063110942915023827
leaf_weight=40635 295 1453 19423
leaf_count=40635 295 1453 19423
internal_value=0 -0.265535 0.0108286
internal_weight=0 1748 60058
internal_count=61806 1748 60058
shrinkage=0.1


Tree=107
num_leaves=4
num_cat=0
split_feature=0 13 11
split_gain=99.6359 174.243 99.8554
threshold=342.50000000000006 20.647500000000004 1.0000000180025095e-35
decision_type=2 2 2
left_child=1 -1 -2
right_child=2 -3 -4
leaf_value=-0.0075285664182282693 0.0051905023192172417 -0.089985860197621434 -0.0030732543386342392
leaf_weight=1147 24897 330 35432
leaf_count=1147 24897 330 35432
internal_value=0 -0.259517 0.00337091
internal_weight=0 1477 60329
internal_count=61806 1477 60329
shrinkage=0.1


Tree=108
num_leaves=4
num_cat=0
split_feature=2 13 10
split_gain=119.442 473.207 116.419
threshold=15.000000000000002 12.525 94500.000000000015
decision_type=10 2 2
left_child=2 -2 -1
right_child=1 -3 -4
leaf_value=-0.0009522672324825404 -0.067938374897079254 0.058353753885011975 0.01486995290534112
leaf_weight=55106 391 1230 5079
leaf_count=55106 391 1230 5079
internal_value=0 0.278909 0.00382967
internal_weight=0 1621 60185
internal_count=61806 1621 60185
shrinkage=0.1


Tree=109
num_leaves=4
num_cat=0
split_feature=13 10 9
split_gain=141.837 183.312 164.347
threshold=27.442500000000006 76500.000000000015 96.500000000000014
decision_type=2 2 2
left_child=1 -1 -2
right_child=2 -3 -4
leaf_value=0.0028030490955138704 0.022731525209004823 -0.011437619946841136 0.29138445002229318
leaf_weight=48382 2285 11116 23
leaf_count=48382 2285 11116 23
internal_value=0 0.00142468 0.254087
internal_weight=0 59498 2308
internal_count=61806 59498 2308
shrinkage=0.1


Tree=110
num_leaves=4
num_cat=0
split_feature=13 10 1
split_gain=55.0536 234.407 225.323
threshold=16.675000000000004 61500.000000000007 7.5000000000000009
decision_type=2 2 10
left_child=2 -2 -1
right_child=1 -3 -4
leaf_value=0.00025766599208583375 -0.056542666914695908 -0.0024745436312091271 0.040566662526517611
leaf_weight=40444 837 19089 1436
leaf_count=40444 837 19089 1436
internal_value=0 -0.047457 0.016398
internal_weight=0 19926 41880
internal_count=61806 19926 41880
shrinkage=0.1


Tree=111
num_leaves=4
num_cat=0
split_feature=0 5 13
split_gain=77.3329 135.89 68.0991
threshold=13006.500000000002 1.0000000180025095e-35 1.4625000000000001
decision_type=2 10 2
left_child=2 -2 -1
right_child=1 -3 -4
leaf_value=-0.021481655321709633 0.0042571894068970124 0.04056683172619889 0.0006573015671419237
leaf_weight=1426 4947 1302 54131
leaf_count=1426 4947 1302 54131
internal_value=0 0.118224 0.000890536
internal_weight=0 6249 55557
internal_count=61806 6249 55557
shrinkage=0.1


Tree=112
num_leaves=4
num_cat=0
split_feature=10 10 9
split_gain=124.269 168.465 123.031
threshold=74500.000000000015 50500.000000000007 72.500000000000014
decision_type=2 2 2
left_child=1 -1 -2
right_child=2 -3 -4
leaf_value=-0.0061982486230048569 -0.0049633227778586829 0.0059244168748529237 -0.027167447661114053
leaf_weight=19891 11686 27056 3173
leaf_count=19891 11686 27056 3173
internal_value=0 0.00788158 -0.0970481
internal_weight=0 46947 14859
internal_count=61806 46947 14859
shrinkage=0.1


Tree=113
num_leaves=4
num_cat=0
split_feature=13 10 9
split_gain=86.4424 239.096 108.408
threshold=17.235000000000003 76500.000000000015 60.500000000000007
decision_type=2 2 2
left_child=1 -1 -2
right_child=2 -3 -4
leaf_value=0.001064430997516131 -0.013473864923510097 0.06778244956470135 0.0017863271098154587
leaf_weight=42591 9819 544 8852
leaf_count=42591 9819 544 8852
internal_value=0 0.0190585 -0.0623894
internal_weight=0 43135 18671
internal_count=61806 43135 18671
shrinkage=0.1


Tree=114
num_leaves=4
num_cat=0
split_feature=9 1 13
split_gain=229.933 211.882 128.237
threshold=79.500000000000014 4.0000000000000009 26.242500000000003
decision_type=2 10 2
left_child=2 -2 -1
right_child=1 -3 -4
leaf_value=0.0031467769154255999 -0.01175938724390853 -0.070350849680095126 -0.018029692005458377
leaf_weight=54489 3552 747 3018
leaf_count=54489 3552 747 3018
internal_value=0 -0.219403 0.0203542
internal_weight=0 4299 57507
internal_count=61806 4299 57507
shrinkage=0.1


Tree=115
num_leaves=4
num_cat=0
split_feature=10 13 10
split_gain=78.3152 362.783 128.325
threshold=42500.000000000007 9.2550000000000008 75500.000000000015
decision_type=2 2 2
left_child=1 -1 -2
right_child=2 -3 -4
leaf_value=-0.0011246450336063472 0.0048066815012222965 -0.054355267437725868 -0.0065109567544130364
leaf_weight=11116 35246 1447 13997
leaf_count=11116 35246 1447 13997
internal_value=0 -0.0725572 0.0158972
internal_weight=0 12563 49243
internal_count=61806 12563 49243
shrinkage=0.1


Tree=116
num_leaves=4
num_cat=0
split_feature=13 9 0
split_gain=96.8953 216.542 106.974
threshold=24.502500000000001 98.500000000000014 7464.5000000000009
decision_type=2 2 2
left_child=2 -2 -1
right_child=1 -3 -4
leaf_value=-0.0063889171960975688 0.010415988278334887 0.30538646396994595 0.0023345237057311691
leaf_weight=28542 5539 25 27700
leaf_count=28542 5539 25 27700
internal_value=0 0.117413 -0.020925
internal_weight=0 5564 56242
internal_count=61806 5564 56242
shrinkage=0.1


Tree=117
num_leaves=4
num_cat=0
split_feature=9 1 10
split_gain=135.154 297.262 126.178
threshold=93.500000000000014 1.0000000180025095e-35 92500.000000000015
decision_type=2 8 2
left_child=2 -2 -1
right_child=1 -3 -4
leaf_value=-0.00052191272291283867 0.43560693204402928 0.039769816527466181 0.014571173258071727
leaf_weight=55261 20 369 6156
leaf_count=55261 20 369 6156
internal_value=0 0.601213 0.0099091
internal_weight=0 389 61417
internal_count=61806 389 61417
shrinkage=0.1


Tree=118
num_leaves=4
num_cat=0
split_feature=9 13 10
split_gain=76.3493 181.536 70.7829
threshold=82.500000000000014 31.545000000000005 116500.00000000001
decision_type=2 2 2
left_child=2 -2 -1
right_child=1 -3 -4
leaf_value=0.00096486978549795784 -0.013191061592454548 -0.26898828319140844 -0.0392948198244399
leaf_weight=58302 3036 28 440
leaf_count=58302 3036 28 440
internal_value=0 -0.155286 0.00663309
internal_weight=0 3064 58742
internal_count=61806 3064 58742
shrinkage=0.1


Tree=119
num_leaves=4
num_cat=0
split_feature=9 13 10
split_gain=101.337 267.428 86.1486
threshold=90.500000000000014 26.242500000000003 115500.00000000001
decision_type=2 2 2
left_child=2 -2 -1
right_child=1 -3 -4
leaf_value=-0.00056583341562297762 -0.015494422809252964 -0.19825884799369509 0.036460440588425701
leaf_weight=60356 725 90 635
leaf_count=60356 725 90 635
internal_value=0 -0.35677 -0.00180339
internal_weight=0 815 60991
internal_count=61806 815 60991
shrinkage=0.1


Tree=120
num_leaves=4
num_cat=0
split_feature=13 0 13
split_gain=134.007 162.966 72.274
threshold=29.882500000000004 12577.500000000002 29.360000000000003
decision_type=2 2 2
left_child=2 -2 -1
right_child=1 -3 -4
leaf_value=0.00010785692807892158 0.052178351801573014 -0.11881788293520611 -0.057312349684705791
leaf_weight=60742 784 60 220
leaf_count=60742 784 60 220
internal_value=0 0.400222 -0.000993614
internal_weight=0 844 60962
internal_count=61806 844 60962
shrinkage=0.1


Tree=121
num_leaves=4
num_cat=0
split_feature=0 5 6
split_gain=134.104 154.453 103.136
threshold=9081.5000000000018 1.0000000180025095e-35 1.0000000180025095e-35
decision_type=2 10 8
left_child=1 -1 -2
right_child=2 -3 -4
leaf_value=-0.0019193530510379104 0.028517238583708578 -0.017619732511197316 0.0026335337455695917
leaf_weight=30572 1657 7881 21696
leaf_count=30572 1657 7881 21696
internal_value=0 -0.0513717 0.044701
internal_weight=0 38453 23353
internal_count=61806 38453 23353
shrinkage=0.1


Tree=122
num_leaves=4
num_cat=0
split_feature=13 0 10
split_gain=95.5467 146.635 87.4489
threshold=30.545000000000005 12344.500000000002 60500.000000000007
decision_type=2 2 2
left_child=2 -2 -1
right_child=1 -3 -4
leaf_value=-0.0027052388171507767 -0.023249454600382018 -0.19412340275265955 0.0048605412705751989
leaf_weight=31574 578 55 29599
leaf_count=31574 578 55 29599
internal_value=0 -0.380963 0.00955519
internal_weight=0 633 61173
internal_count=61806 633 61173
shrinkage=0.1


Tree=123
num_leaves=4
num_cat=0
split_feature=13 0 12
split_gain=107.761 227.031 104.265
threshold=26.907500000000002 1162.5000000000002 1.0000000180025095e-35
decision_type=2 2 2
left_child=2 -2 -1
right_child=1 -3 -4
leaf_value=-8.2908714544911246e-06 0.1017879576444005 0.009685936283516515 -0.034924461932376472
leaf_weight=58157 300 2481 868
leaf_count=58157 300 2481 868
internal_value=0 0.196214 -0.00521755
internal_weight=0 2781 59025
internal_count=61806 2781 59025
shrinkage=0.1


Tree=124
num_leaves=4
num_cat=0
split_feature=11 10 13
split_gain=80.6951 152.878 87.7341
threshold=1.0000000180025095e-35 117500.00000000001 32.900000000000006
decision_type=2 2 2
left_child=1 -1 -2
right_child=2 -3 -4
leaf_value=0.0037630832783140523 -0.0041022332590005747 -0.071333424248698638 -0.096977370831311915
leaf_weight=25480 35950 274 102
leaf_count=25480 35950 274 102
internal_value=0 0.0296412 -0.04365
internal_weight=0 25754 36052
internal_count=61806 25754 36052
shrinkage=0.1


Tree=125
num_leaves=4
num_cat=0
split_feature=0 6 3
split_gain=69.6346 159.311 80.7385
threshold=11452.500000000002 1.0000000180025095e-35 204.00000000000003
decision_type=2 10 10
left_child=2 -2 -1
right_child=1 -3 -4
leaf_value=-0.0020297547092579513 -0.001320730382005316 0.024001745959699644 -0.01848484600571795
leaf_weight=45485 9802 3328 3191
leaf_count=45485 9802 3328 3191
internal_value=0 0.0509764 -0.0310848
internal_weight=0 13130 48676
internal_count=61806 13130 48676
shrinkage=0.1


Tree=126
num_leaves=4
num_cat=0
split_feature=9 3 13
split_gain=119.871 264.423 79.4819
threshold=28.500000000000004 204.00000000000003 18.535000000000004
decision_type=2 10 2
left_child=1 -1 -2
right_child=2 -3 -4
leaf_value=-0.0087629961958685994 0.0034187033257431208 -0.10587214033042834 -0.0050109448433997917
leaf_weight=7059 38727 292 15728
leaf_count=7059 38727 292 15728
internal_value=0 -0.126204 0.00984005
internal_weight=0 7351 54455
internal_count=61806 7351 54455
shrinkage=0.1


Tree=127
num_leaves=4
num_cat=0
split_feature=9 10 9
split_gain=73.9964 204.442 90.6991
threshold=78.500000000000014 62500.000000000007 62.500000000000007
decision_type=2 2 2
left_child=2 -2 -1
right_child=1 -3 -4
leaf_value=-0.0021714716246463476 0.011360644519087901 -0.030259721080165426 0.0070380417480634455
leaf_weight=42697 2038 2804 14267
leaf_count=42697 2038 2804 14267
internal_value=0 -0.127417 0.0013511
internal_weight=0 4842 56964
internal_count=61806 4842 56964
shrinkage=0.1


Tree=128
num_leaves=4
num_cat=0
split_feature=9 10 0
split_gain=70.0675 160.352 75.6307
threshold=44.500000000000007 98500.000000000015 4919.5000000000009
decision_type=2 2 2
left_child=1 -1 -2
right_child=2 -3 -4
leaf_value=-0.0039238323105218091 0.008646794325150281 -0.14076738656650103 -0.00034865305729090773
leaf_weight=19904 14103 86 27713
leaf_count=19904 14103 86 27713
internal_value=0 -0.0451255 0.0268518
internal_weight=0 19990 41816
internal_count=61806 19990 41816
shrinkage=0.1


Tree=129
num_leaves=4
num_cat=0
split_feature=13 13 13
split_gain=115.949 159.391 143.189
threshold=22.755000000000006 24.052500000000006 21.757500000000007
decision_type=2 2 2
left_child=2 -2 -1
right_child=1 -3 -4
leaf_value=0.0010975580175912958 -0.03502794578111447 -0.0028496517292399127 0.031508167668109772
leaf_weight=51820 2031 6359 1596
leaf_count=51820 2031 6359 1596
internal_value=0 -0.106392 0.0200619
internal_weight=0 8390 53416
internal_count=61806 8390 53416
shrinkage=0.1


Tree=130
num_leaves=4
num_cat=0
split_feature=10 13 10
split_gain=69.8421 654.261 78.2319
threshold=37500.000000000007 7.6175000000000006 96500.000000000015
decision_type=2 2 2
left_child=1 -1 -2
right_child=2 -3 -4
leaf_value=0.0076540483560330374 0.0025772899827422131 -0.06019954147506993 -0.01113565600173267
leaf_weight=5889 49502 1873 4542
leaf_count=5889 49502 1873 4542
internal_value=0 -0.0871928 0.0142482
internal_weight=0 7762 54044
internal_count=61806 7762 54044
shrinkage=0.1


Tree=131
num_leaves=4
num_cat=0
split_feature=10 13 0
split_gain=126.479 240.079 87.7567
threshold=115500.00000000001 32.900000000000006 11452.500000000002
decision_type=2 2 2
left_child=2 -2 -1
right_child=1 -3 -4
leaf_value=-0.0015338585016721838 0.056223286171095434 -0.26597807432214421 0.0076994820342146802
leaf_weight=48047 635 24 13100
leaf_count=48047 635 24 13100
internal_value=0 0.444891 0.00444272
internal_weight=0 659 61147
internal_count=61806 659 61147
shrinkage=0.1


Tree=132
num_leaves=4
num_cat=0
split_feature=2 13 10
split_gain=87.9026 399.033 89.3032
threshold=15.000000000000002 2.5325000000000002 91500.000000000015
decision_type=10 2 2
left_child=2 -2 -1
right_child=1 -3 -4
leaf_value=-0.00067063545394218695 -0.34999282381364277 0.030817831658086769 0.011948399293194641
leaf_weight=53926 28 1593 6259
leaf_count=53926 28 1593 6259
internal_value=0 0.2424 0.00641694
internal_weight=0 1621 60185
internal_count=61806 1621 60185
shrinkage=0.1


Tree=133
num_leaves=4
num_cat=0
split_feature=13 10 10
split_gain=112.668 192.531 158.814
threshold=30.545000000000005 115500.00000000001 118500.00000000001
decision_type=2 2 2
left_child=2 -2 -1
right_child=1 -3 -4
leaf_value=0.00044879689165407632 0.024638902069576668 0.21190694137552724 -0.094680356266590854
leaf_weight=61020 549 61 176
leaf_count=61020 549 61 176
internal_value=0 0.433657 0.00175205
internal_weight=0 610 61196
internal_count=61806 610 61196
shrinkage=0.1


Tree=134
num_leaves=4
num_cat=0
split_feature=9 0 13
split_gain=62.5702 136.846 68.6517
threshold=93.500000000000014 10120.500000000002 18.405000000000005
decision_type=2 2 2
left_child=2 -2 -1
right_child=1 -3 -4
leaf_value=0.0011589132872487594 -0.0045726009778595941 0.11447650922928006 -0.0064355753999292171
leaf_weight=45231 271 150 16154
leaf_count=45231 271 150 16154
internal_value=0 0.378439 -0.00839643
internal_weight=0 421 61385
internal_count=61806 421 61385
shrinkage=0.1


Tree=135
num_leaves=4
num_cat=0
split_feature=13 3 0
split_gain=226.799 221.299 45.5165
threshold=26.242500000000003 84.000000000000014 57.500000000000007
decision_type=2 8 2
left_child=2 -2 -1
right_child=1 -3 -4
leaf_value=-0.043216367981406274 -0.16664959022374912 -0.020558647776483006 0.0014540959932895117
leaf_weight=229 107 3351 58119
leaf_count=229 107 3351 58119
internal_value=0 -0.250791 0.0127878
internal_weight=0 3458 58348
internal_count=61806 3458 58348
shrinkage=0.1


Tree=136
num_leaves=4
num_cat=0
split_feature=10 9 13
split_gain=112.133 342.852 90.033
threshold=118500.00000000001 58.500000000000007 30.545000000000005
decision_type=2 2 2
left_child=2 -2 -1
right_child=1 -3 -4
leaf_value=-0.0015237238247157287 -0.24215630564790269 0.023734770612862277 0.037827763418322731
leaf_weight=61011 77 131 587
leaf_count=61011 77 131 587
internal_value=0 -0.746961 -0.0114872
internal_weight=0 208 61598
internal_count=61806 208 61598
shrinkage=0.1


Tree=137
num_leaves=4
num_cat=0
split_feature=13 1 1
split_gain=74.5434 242.537 86.5041
threshold=2.5025000000000004 4.0000000000000009 1.0000000180025095e-35
decision_type=2 10 8
left_child=1 -1 -2
right_child=2 -3 -4
leaf_value=-0.0091740480328928089 0.017928787873838208 0.084887518759169583 0.0017345422953522892
leaf_weight=9820 3541 282 48163
leaf_count=9820 3541 282 48163
internal_value=0 -0.0654829 0.0284362
internal_weight=0 10102 51704
internal_count=61806 10102 51704
shrinkage=0.1


Tree=138
num_leaves=4
num_cat=0
split_feature=10 10 13
split_gain=195.138 156.963 70.5259
threshold=105500.00000000001 107500.00000000001 12.875000000000002
decision_type=2 2 2
left_child=2 -2 -1
right_child=1 -3 -4
leaf_value=0.0026583951012807143 0.096958786114835396 0.019228864170339172 -0.0042772007841045548
leaf_weight=33381 299 1981 26145
leaf_count=33381 299 1981 26145
internal_value=0 0.294224 -0.00387856
internal_weight=0 2280 59526
internal_count=61806 2280 59526
shrinkage=0.1


Tree=139
num_leaves=4
num_cat=0
split_feature=2 13 9
split_gain=69.6691 397.217 55.9598
threshold=15.000000000000002 7.8125 18.500000000000004
decision_type=10 2 2
left_child=2 -2 -1
right_child=1 -3 -4
leaf_value=-0.041133902074171252 -0.13851722364242261 0.035700359472634342 0.00053757268302994971
leaf_weight=324 143 1543 59796
leaf_count=324 143 1543 59796
internal_value=0 0.209239 0.00312996
internal_weight=0 1686 60120
internal_count=61806 1686 60120
shrinkage=0.1


Tree=140
num_leaves=4
num_cat=0
split_feature=0 1 13
split_gain=76.4374 108.177 97.9836
threshold=8976.5000000000018 4.0000000000000009 13.890000000000002
decision_type=2 10 2
left_child=2 -2 -1
right_child=1 -3 -4
leaf_value=0.0017643166674788961 0.0018442182526553345 0.021127980225304478 -0.0084898125380011707
leaf_weight=21745 20360 3394 16307
leaf_count=21745 20360 3394 16307
internal_value=0 0.0459951 -0.0263004
internal_weight=0 23754 38052
internal_count=61806 23754 38052
shrinkage=0.1


Tree=141
num_leaves=4
num_cat=0
split_feature=13 10 5
split_gain=123.887 278.206 85.7439
threshold=30.545000000000005 107500.00000000001 1.0000000180025095e-35
decision_type=2 2 8
left_child=2 -2 -1
right_child=1 -3 -4
leaf_value=0.0097755569141599954 0.092458408079223675 -0.047775107808411127 -0.0019874647638053423
leaf_weight=6997 410 216 54183
leaf_count=6997 410 216 54183
internal_value=0 0.440711 -0.00642158
internal_weight=0 626 61180
internal_count=61806 626 61180
shrinkage=0.1


Tree=142
num_leaves=4
num_cat=0
split_feature=9 9 9
split_gain=84.6314 96.8442 71.9235
threshold=93.500000000000014 94.500000000000014 85.500000000000014
decision_type=2 2 2
left_child=2 -2 -1
right_child=1 -3 -4
leaf_value=-0.00091201771500770592 0.12043425474884147 0.01349841703226169 -0.022716715864911863
leaf_weight=59836 118 300 1552
leaf_count=59836 118 300 1552
internal_value=0 0.43686 -0.0146328
internal_weight=0 418 61388
internal_count=61806 418 61388
shrinkage=0.1


Tree=143
num_leaves=4
num_cat=0
split_feature=10 6 13
split_gain=164.044 246.335 109.112
threshold=86500.000000000015 1.0000000180025095e-35 31.545000000000005
decision_type=2 8 2
left_child=2 -2 -1
right_child=1 -3 -4
leaf_value=0.00048244495077961786 -0.040545503770862801 0.020500229425428011 0.20156049331029258
leaf_weight=53112 721 7946 27
leaf_count=53112 721 7946 27
internal_value=0 0.154219 0.00584613
internal_weight=0 8667 53139
internal_count=61806 8667 53139
shrinkage=0.1


Tree=144
num_leaves=4
num_cat=0
split_feature=13 0 13
split_gain=83.3564 202.33 75.0249
threshold=25.312500000000004 57.500000000000007 21.757500000000007
decision_type=2 2 2
left_child=2 -2 -1
right_child=1 -3 -4
leaf_value=0.00099416391735153127 0.27182441602647306 -0.013444014977713945 0.013359402427559364
leaf_weight=51824 25 4537 5420
leaf_count=51824 25 4537 5420
internal_value=0 -0.118807 0.0216493
internal_weight=0 4562 57244
internal_count=61806 4562 57244
shrinkage=0.1


Tree=145
num_leaves=4
num_cat=0
split_feature=10 7 13
split_gain=91.0366 191.106 135.432
threshold=102500.00000000001 1.0000000180025095e-35 26.682500000000001
decision_type=2 10 2
left_child=2 -2 -1
right_child=1 -3 -4
leaf_value=-0.00080606121278892987 0.03100506761767953 -0.029970921861240642 -0.030285089196014209
leaf_weight=57346 2186 672 1602
leaf_count=57346 2186 672 1602
internal_value=0 0.166678 -0.016072
internal_weight=0 2858 58948
internal_count=61806 2858 58948
shrinkage=0.1


Tree=146
num_leaves=4
num_cat=0
split_feature=13 10 10
split_gain=184.911 285.599 97.7289
threshold=29.882500000000004 88500.000000000015 92500.000000000015
decision_type=2 2 2
left_child=2 -2 -1
right_child=1 -3 -4
leaf_value=-0.001409009981601054 0.12637277914341105 -0.065608206777809625 0.012610329331710191
leaf_weight=55475 86 783 5462
leaf_count=55475 86 783 5462
internal_value=0 -0.466089 -0.00152407
internal_weight=0 869 60937
internal_count=61806 869 60937
shrinkage=0.1


Tree=147
num_leaves=4
num_cat=0
split_feature=10 10 0
split_gain=105.431 246.135 78.3718
threshold=115500.00000000001 116500.00000000001 11452.500000000002
decision_type=2 2 2
left_child=2 -2 -1
right_child=1 -3 -4
leaf_value=-0.0012326955907094855 0.15906315024593753 0.0091686129634857647 0.0075219850856243307
leaf_weight=48169 139 517 12981
leaf_count=48169 139 517 12981
internal_value=0 0.409298 0.00625759
internal_weight=0 656 61150
internal_count=61806 656 61150
shrinkage=0.1


Tree=148
num_leaves=4
num_cat=0
split_feature=0 5 13
split_gain=56.9412 116.514 56.7678
threshold=14436.500000000002 1.0000000180025095e-35 12.875000000000002
decision_type=2 10 2
left_child=2 -2 -1
right_child=1 -3 -4
leaf_value=0.0018344553122741894 0.013872826298208027 0.20020163222437815 -0.0042565547171646593
leaf_weight=33257 167 42 28340
leaf_count=33257 167 42 28340
internal_value=0 0.513169 -0.00967941
internal_weight=0 209 61597
internal_count=61806 209 61597
shrinkage=0.1


Tree=149
num_leaves=4
num_cat=0
split_feature=13 0 3
split_gain=137.409 221.426 57.5721
threshold=28.667500000000004 1162.5000000000002 84.000000000000014
decision_type=2 2 8
left_child=2 -2 -1
right_child=1 -3 -4
leaf_value=0.016289160433753121 0.14399100044660224 0.018988987680968451 0.00090954674315209315
leaf_weight=2541 159 1303 57803
leaf_count=2541 159 1303 57803
internal_value=0 0.325836 0.0155716
internal_weight=0 1462 60344
internal_count=61806 1462 60344
shrinkage=0.1


Tree=150
num_leaves=4
num_cat=0
split_feature=2 0 0
split_gain=107.244 222.2 104.663
threshold=6.0000000000000009 512.50000000000011 14326.500000000002
decision_type=10 2 2
left_child=2 -2 -1
right_child=1 -3 -4
leaf_value=-0.0027699305576650195 -0.064915363750443225 0.010031633353735834 -0.046594809088803167
leaf_weight=49596 410 11249 551
leaf_count=49596 410 11249 551
internal_value=0 0.0739605 -0.0325147
internal_weight=0 11659 50147
internal_count=61806 11659 50147
shrinkage=0.1


Tree=151
num_leaves=4
num_cat=0
split_feature=9 13 13
split_gain=105.046 168.682 145.492
threshold=75.500000000000014 17.792500000000004 24.502500000000001
decision_type=2 2 2
left_child=2 -2 -1
right_child=1 -3 -4
leaf_value=-0.0004394480217087233 0.0010214035044319267 -0.031916998255702864 0.017975978223876272
leaf_weight=50675 3824 2620 4687
leaf_count=50675 3824 2620 4687
internal_value=0 -0.123707 0.0111962
internal_weight=0 6444 55362
internal_count=61806 6444 55362
shrinkage=0.1


Tree=152
num_leaves=4
num_cat=0
split_feature=11 0 10
split_gain=186.674 191.393 174.933
threshold=1.0000000180025095e-35 57.500000000000007 118500.00000000001
decision_type=2 2 2
left_child=1 -1 -2
right_child=2 -3 -4
leaf_value=-0.12580481349499126 -0.0050608523131661998 0.0069886453177820914 0.14297665520571173
leaf_weight=109 36126 25491 80
leaf_count=109 36126 25491 80
internal_value=0 0.0642324 -0.0473375
internal_weight=0 25600 36206
internal_count=61806 25600 36206
shrinkage=0.1


Tree=153
num_leaves=4
num_cat=0
split_feature=10 0 13
split_gain=148.335 201.238 75.1958
threshold=117500.00000000001 7816.5000000000009 27.442500000000006
decision_type=2 2 2
left_child=2 -2 -1
right_child=1 -3 -4
leaf_value=-0.00032974488330480352 -0.00059591110557951829 -0.14367261425283404 0.018469668011652417
leaf_weight=59195 235 169 2207
leaf_count=59195 235 169 2207
internal_value=0 -0.604473 0.00345971
internal_weight=0 404 61402
internal_count=61806 404 61402
shrinkage=0.1


Tree=154
num_leaves=4
num_cat=0
split_feature=10 10 0
split_gain=83.8364 199.523 50.8404
threshold=100500.00000000001 105500.00000000001 14265.500000000002
decision_type=2 2 2
left_child=2 -2 -1
right_child=1 -3 -4
leaf_value=0.00042739938232900848 -0.059616994198120526 -0.0017229473318236006 -0.023459103941230505
leaf_weight=57818 806 2277 905
leaf_count=57818 806 2277 905
internal_value=0 -0.168584 0.000592764
internal_weight=0 3083 58723
internal_count=61806 3083 58723
shrinkage=0.1


Tree=155
num_leaves=4
num_cat=0
split_feature=10 13 9
split_gain=117.177 239.682 106.778
threshold=33500.000000000007 10.522500000000003 98.500000000000014
decision_type=2 2 2
left_child=1 -1 -2
right_child=2 -3 -4
leaf_value=-0.014771707006904462 0.0011457723612224296 -0.30339158506229008 0.1089638866160227
leaf_weight=3673 58012 29 92
leaf_count=3673 58012 29 92
internal_value=0 -0.170326 0.0131649
internal_weight=0 3702 58104
internal_count=61806 3702 58104
shrinkage=0.1


Tree=156
num_leaves=4
num_cat=0
split_feature=6 13 2
split_gain=43.4904 250.924 79.6382
threshold=1.0000000180025095e-35 29.360000000000003 6.0000000000000009
decision_type=8 2 8
left_child=1 -1 -2
right_child=2 -3 -4
leaf_value=0.011657088690088453 -0.013463021674205364 -0.15523050520164164 -0.00085492941481727096
leaf_weight=4348 5546 92 51820
leaf_count=4348 5546 92 51820
internal_value=0 0.0819906 -0.0207385
internal_weight=0 4440 57366
internal_count=61806 4440 57366
shrinkage=0.1


Tree=157
num_leaves=4
num_cat=0
split_feature=0 9 13
split_gain=112.732 81.4697 79.5391
threshold=111.50000000000001 55.500000000000007 6.2749999999999995
decision_type=2 2 2
left_child=2 -2 -1
right_child=1 -3 -4
leaf_value=0.01502049284712445 0.0031156644680240698 -0.0041988713439795869 -0.074652006137714264
leaf_weight=139 33184 28140 343
leaf_count=139 33184 28140 343
internal_value=0 -0.00240787 -0.487921
internal_weight=0 61324 482
internal_count=61806 61324 482
shrinkage=0.1


Tree=158
num_leaves=4
num_cat=0
split_feature=10 2 0
split_gain=88.6638 278.825 65.1665
threshold=118500.00000000001 6.0000000000000009 14382.500000000002
decision_type=2 8 2
left_child=2 -2 -1
right_child=1 -3 -4
leaf_value=-0.00090573945070751929 0.35879940316081049 0.018238127076012248 0.037288497794523007
leaf_weight=61158 28 170 450
leaf_count=61158 28 170 450
internal_value=0 0.663983 -0.00626759
internal_weight=0 198 61608
internal_count=61806 198 61608
shrinkage=0.1


Tree=159
num_leaves=4
num_cat=0
split_feature=10 2 0
split_gain=65.4921 390.561 57.9909
threshold=118500.00000000001 8.5000000000000018 11452.500000000002
decision_type=2 8 2
left_child=2 -2 -1
right_child=1 -3 -4
leaf_value=-0.0021562040155917949 0.37677024703007195 -0.0069584856855292483 0.0053447249888741227
leaf_weight=48533 32 155 13086
leaf_count=48533 32 155 13086
internal_value=0 0.587063 -0.00563235
internal_weight=0 187 61619
internal_count=61806 187 61619
shrinkage=0.1


Tree=160
num_leaves=4
num_cat=0
split_feature=13 10 1
split_gain=53.9716 545.859 359.226
threshold=12.672500000000001 52500.000000000007 7.5000000000000009
decision_type=2 2 10
left_child=2 -2 -1
right_child=1 -3 -4
leaf_value=0.00090421393926659219 -0.066632753992114241 -0.00045681661022285106 0.071519413364329598
leaf_weight=31975 1305 27789 737
leaf_count=31975 1305 27789 737
internal_value=0 -0.0342511 0.0249517
internal_weight=0 29094 32712
internal_count=61806 29094 32712
shrinkage=0.1


Tree=161
num_leaves=4
num_cat=0
split_feature=13 10 1
split_gain=131.99 652.425 401.214
threshold=11.975000000000003 53500.000000000007 7.5000000000000009
decision_type=2 2 10
left_child=2 -2 -1
right_child=1 -3 -4
leaf_value=0.001022739599818156 -0.055005345948797371 -0.0021728750271834511 0.082079118984432986
leaf_weight=30838 2552 27793 623
leaf_count=30838 2552 27793 623
internal_value=0 -0.0661606 0.0262784
internal_weight=0 30345 31461
internal_count=61806 30345 31461
shrinkage=0.1


Tree=162
num_leaves=4
num_cat=0
split_feature=10 13 12
split_gain=80.9609 203.174 68.9091
threshold=117500.00000000001 29.360000000000003 1.0000000180025095e-35
decision_type=2 2 2
left_child=2 -2 -1
right_child=1 -3 -4
leaf_value=-0.0013401885741968654 -0.019559236943073897 -0.23339806347720182 -0.029962258724548177
leaf_weight=60557 345 51 853
leaf_count=60557 345 51 853
internal_value=0 -0.470991 -0.0173776
internal_weight=0 396 61410
internal_count=61806 396 61410
shrinkage=0.1


Tree=163
num_leaves=4
num_cat=0
split_feature=9 10 13
split_gain=64.7917 58.1903 46.3881
threshold=99.500000000000014 112500.00000000001 14.7475
decision_type=2 2 2
left_child=1 -1 -2
right_child=2 -3 -4
leaf_value=-0.00069790565385688234 0.013504235872200558 -0.023631104291974507 -0.14561727598028362
leaf_weight=60598 28 1127 53
leaf_count=60598 28 1127 53
internal_value=0 -0.0111663 -0.906123
internal_weight=0 61725 81
internal_count=61806 61725 81
shrinkage=0.1


Tree=164
num_leaves=4
num_cat=0
split_feature=13 9 9
split_gain=95.6664 132.306 83.8814
threshold=32.900000000000006 80.500000000000014 93.500000000000014
decision_type=2 2 2
left_child=2 -2 -1
right_child=1 -3 -4
leaf_value=-3.4203899035330134e-05 0.099791656240734758 -0.16056715791875667 0.045851630576540188
leaf_weight=61210 173 22 401
leaf_count=61210 173 22 401
internal_value=0 0.704178 0.00264448
internal_weight=0 195 61611
internal_count=61806 195 61611
shrinkage=0.1


Tree=165
num_leaves=4
num_cat=0
split_feature=2 10 10
split_gain=54.1636 344.158 54.7177
threshold=15.000000000000002 42500.000000000007 75500.000000000015
decision_type=10 2 2
left_child=2 -2 -1
right_child=1 -3 -4
leaf_value=0.0025355956541274899 -0.11859570993564841 0.033838185916994043 -0.0047529017716965646
leaf_weight=46915 164 1529 13198
leaf_count=46915 164 1529 13198
internal_value=0 0.19072 0.00935383
internal_weight=0 1693 60113
internal_count=61806 1693 60113
shrinkage=0.1


Tree=166
num_leaves=4
num_cat=0
split_feature=3 13 10
split_gain=120.938 425.675 71.2842
threshold=204.00000000000003 10.245000000000003 118500.00000000001
decision_type=10 2 2
left_child=2 -2 -1
right_child=1 -3 -4
leaf_value=0.0019110968721491436 -0.0723520467883082 0.0027839014888741079 0.065115066244157679
leaf_weight=57570 1001 3056 179
leaf_count=57570 1001 3056 179
internal_value=0 -0.157547 0.0210701
internal_weight=0 4057 57749
internal_count=61806 4057 57749
shrinkage=0.1


Tree=167
num_leaves=4
num_cat=0
split_feature=10 9 10
split_gain=74.7328 229.913 95.1873
threshold=96500.000000000015 44.500000000000007 59500.000000000007
decision_type=2 2 2
left_child=2 -2 -1
right_child=1 -3 -4
leaf_value=-0.0026331743487920914 -0.13602312128091681 -0.0080535133024972633 0.0055414225972989836
leaf_weight=30561 145 4420 26680
leaf_count=30561 145 4420 26680
internal_value=0 -0.121183 0.01177
internal_weight=0 4565 57241
internal_count=61806 4565 57241
shrinkage=0.1


Tree=168
num_leaves=4
num_cat=0
split_feature=10 1 10
split_gain=113.118 203.21 148.774
threshold=107500.00000000001 4.0000000000000009 105500.00000000001
decision_type=2 8 2
left_child=2 -2 -1
right_child=1 -3 -4
leaf_value=0.0020530370992405504 -0.085021650568688795 -0.0055096410285217943 0.072534544071634344
leaf_weight=59556 406 1543 301
leaf_count=59556 406 1543 301
internal_value=0 -0.220729 0.0240746
internal_weight=0 1949 59857
internal_count=61806 1949 59857
shrinkage=0.1


Tree=169
num_leaves=4
num_cat=0
split_feature=10 13 10
split_gain=77.2469 164.511 57.3318
threshold=116500.00000000001 29.882500000000004 75500.000000000015
decision_type=2 2 2
left_child=2 -2 -1
right_child=1 -3 -4
leaf_value=0.00072262493165918703 0.060442694934533428 -0.11626780459657311 -0.0066883167726833025
leaf_weight=47972 432 60 13342
leaf_count=47972 432 60 13342
internal_value=0 0.388926 -0.00890005
internal_weight=0 492 61314
internal_count=61806 492 61314
shrinkage=0.1


Tree=170
num_leaves=4
num_cat=0
split_feature=0 10 0
split_gain=72.467 150.811 62.3065
threshold=13276.500000000002 116500.00000000001 12064.500000000002
decision_type=2 2 2
left_child=2 -2 -1
right_child=1 -3 -4
leaf_value=-0.00099173067993907522 0.011644073343626387 -0.20612106882035733 -0.012328613949076715
leaf_weight=51276 5144 32 5354
leaf_count=51276 5144 32 5354
internal_value=0 0.102978 -0.0206356
internal_weight=0 5176 56630
internal_count=61806 5176 56630
shrinkage=0.1


Tree=171
num_leaves=4
num_cat=0
split_feature=1 13 9
split_gain=51.6232 1044.38 60.3831
threshold=7.5000000000000009 5.4475000000000007 39.500000000000007
decision_type=10 2 2
left_child=2 -2 -1
right_child=1 -3 -4
leaf_value=-0.0053084758490283815 0.31740451455228413 0.0026951024203033997 0.0020598047893034656
leaf_weight=14940 109 3236 43521
leaf_count=14940 109 3236 43521
internal_value=0 0.129502 0.00176804
internal_weight=0 3345 58461
internal_count=61806 3345 58461
shrinkage=0.1


Tree=172
num_leaves=4
num_cat=0
split_feature=13 10 13
split_gain=63.7817 246.218 43.1107
threshold=32.900000000000006 89500.000000000015 1.8525000000000003
decision_type=2 2 2
left_child=2 -2 -1
right_child=1 -3 -4
leaf_value=-0.010004824121241316 0.34952433699369434 0.016283638954010547 0.00085081144847343356
leaf_weight=3906 25 196 57679
leaf_count=3906 25 196 57679
internal_value=0 0.539806 0.00162298
internal_weight=0 221 61585
internal_count=61806 221 61585
shrinkage=0.1


Tree=173
num_leaves=4
num_cat=0
split_feature=13 3 0
split_gain=139.951 128.191 96.0947
threshold=19.732500000000005 204.00000000000003 1777.5000000000002
decision_type=2 10 2
left_child=2 -2 -1
right_child=1 -3 -4
leaf_value=0.013238199049774217 -0.013683133076965146 0.017453276009370453 -0.00049943390086348242
leaf_weight=5788 12200 1483 42335
leaf_count=5788 12200 1483 42335
internal_value=0 -0.103085 0.0115286
internal_weight=0 13683 48123
internal_count=61806 13683 48123
shrinkage=0.1


Tree=174
num_leaves=4
num_cat=0
split_feature=10 13 13
split_gain=94.763 210.203 188.172
threshold=99500.000000000015 24.502500000000001 29.360000000000003
decision_type=2 2 2
left_child=2 -2 -1
right_child=1 -3 -4
leaf_value=0.0014559537085712276 -0.057725148113498381 -0.0011829817189494541 -0.064040022465185475
leaf_weight=58011 898 2455 442
leaf_count=58011 898 2455 442
internal_value=0 -0.163261 0.00960697
internal_weight=0 3353 58453
internal_count=61806 3353 58453
shrinkage=0.1


Tree=175
num_leaves=4
num_cat=0
split_feature=10 6 6
split_gain=62.9254 160.455 62.8023
threshold=84500.000000000015 1.0000000180025095e-35 1.0000000180025095e-35
decision_type=2 8 8
left_child=2 -2 -1
right_child=1 -3 -4
leaf_value=0.01132671883256953 -0.035364632617926273 0.011136081981168305 -0.0024004957706540045
leaf_weight=3579 809 8967 48451
leaf_count=3579 809 8967 48451
internal_value=0 0.0728798 -0.0145624
internal_weight=0 9776 52030
internal_count=61806 9776 52030
shrinkage=0.1


Tree=176
num_leaves=4
num_cat=0
split_feature=1 13 2
split_gain=70.9592 275.229 69.29
threshold=1.0000000180025095e-35 3.9050000000000007 15.000000000000002
decision_type=8 2 10
left_child=1 -1 -2
right_child=2 -3 -4
leaf_value=-0.024867074908957589 -0.0010897090873239238 0.030378475669482121 0.019970811933286862
leaf_weight=1316 56018 2865 1607
leaf_count=1316 56018 2865 1607
internal_value=0 0.129895 -0.0050239
internal_weight=0 4181 57625
internal_count=61806 4181 57625
shrinkage=0.1


Tree=177
num_leaves=4
num_cat=0
split_feature=10 0 13
split_gain=71.0879 189.134 45.3869
threshold=115500.00000000001 13451.500000000002 13.890000000000002
decision_type=2 2 2
left_child=2 -2 -1
right_child=1 -3 -4
leaf_value=-0.00051976188735700167 0.040758439534620716 -0.22940157168993244 -0.0060399108469049306
leaf_weight=35445 644 27 25690
leaf_count=35445 644 27 25690
internal_value=0 0.298876 -0.0283943
internal_weight=0 671 61135
internal_count=61806 671 61135
shrinkage=0.1


Tree=178
num_leaves=4
num_cat=0
split_feature=13 9 9
split_gain=131.552 152.651 63.5714
threshold=32.900000000000006 59.500000000000007 67.500000000000014
decision_type=2 2 2
left_child=2 -2 -1
right_child=1 -3 -4
leaf_value=0.0021295993617746296 -0.012892369910770533 0.15662505229742363 -0.0057082837926432468
leaf_weight=48432 98 116 13160
leaf_count=48432 98 116 13160
internal_value=0 0.789956 0.00454925
internal_weight=0 214 61592
internal_count=61806 214 61592
shrinkage=0.1


Tree=179
num_leaves=4
num_cat=0
split_feature=13 1 13
split_gain=61.4457 188.146 53.9504
threshold=2.7225000000000006 4.0000000000000009 13.890000000000002
decision_type=2 10 2
left_child=1 -1 -2
right_child=2 -3 -4
leaf_value=-0.0076729362079832782 0.005855368186975957 0.066191725039421778 -0.00077016117983549079
leaf_weight=12052 22982 355 26417
leaf_count=12052 22982 355 26417
internal_value=0 -0.0555946 0.0231225
internal_weight=0 12407 49399
internal_count=61806 12407 49399
shrinkage=0.1


Tree=180
num_leaves=4
num_cat=0
split_feature=10 10 10
split_gain=119.287 174.637 109.261
threshold=76500.000000000015 78500.000000000015 70500.000000000015
decision_type=2 2 2
left_child=2 -2 -1
right_child=1 -3 -4
leaf_value=-0.0015017368530063097 -0.050784310430612579 -0.0071089963778393252 0.01267552607697681
leaf_weight=42098 988 12478 6242
leaf_count=42098 988 12478 6242
internal_value=0 -0.103135 0.00328931
internal_weight=0 13466 48340
internal_count=61806 13466 48340
shrinkage=0.1


Tree=181
num_leaves=4
num_cat=0
split_feature=1 13 13
split_gain=80.2911 317.714 181.563
threshold=2.5000000000000004 4.4275000000000011 4.3075000000000001
decision_type=10 2 2
left_child=2 -2 -1
right_child=1 -3 -4
leaf_value=-0.0056153560528592102 0.039102062573342672 -0.013315266229958482 0.006724071695837594
leaf_weight=19359 1306 10091 31050
leaf_count=19359 1306 10091 31050
internal_value=0 -0.0730868 0.0198526
internal_weight=0 11397 50409
internal_count=61806 11397 50409
shrinkage=0.1


Tree=182
num_leaves=4
num_cat=0
split_feature=13 6 13
split_gain=110.811 207.456 59.9501
threshold=30.545000000000005 1.0000000180025095e-35 0.89500000000000013
decision_type=2 10 2
left_child=2 -2 -1
right_child=1 -3 -4
leaf_value=-0.048623499593250158 -0.10248209586491189 0.012416795073359303 5.9957253595348641e-05
leaf_weight=254 300 330 60922
leaf_count=254 300 330 60922
internal_value=0 -0.42297 -0.00142174
internal_weight=0 630 61176
internal_count=61806 630 61176
shrinkage=0.1


Tree=183
num_leaves=4
num_cat=0
split_feature=10 5 13
split_gain=79.2572 160.031 127.1
threshold=102500.00000000001 1.0000000180025095e-35 32.900000000000006
decision_type=2 8 2
left_child=2 -2 -1
right_child=1 -3 -4
leaf_value=-0.00076041933373458166 -0.034362968638873635 0.027633514278978207 0.10935938218874591
leaf_weight=58865 507 2329 105
leaf_count=58865 507 2329 105
internal_value=0 0.165502 -0.00564344
internal_weight=0 2836 58970
internal_count=61806 2836 58970
shrinkage=0.1


Tree=184
num_leaves=4
num_cat=0
split_feature=10 13 13
split_gain=72.1854 188.192 128.992
threshold=67500.000000000015 13.547500000000001 8.5775000000000023
decision_type=2 2 2
left_child=1 -1 -2
right_child=2 -3 -4
leaf_value=0.0017936397052110465 -0.01378572354090013 -0.015936712782345458 0.0084668377292636005
leaf_weight=31684 3001 7381 19740
leaf_count=31684 3001 7381 19740
internal_value=0 -0.0155636 0.0553029
internal_weight=0 39065 22741
internal_count=61806 39065 22741
shrinkage=0.1


Tree=185
num_leaves=4
num_cat=0
split_feature=10 9 0
split_gain=65.8114 201.688 60.6432
threshold=118500.00000000001 60.500000000000007 13667.500000000002
decision_type=2 2 2
left_child=2 -2 -1
right_child=1 -3 -4
leaf_value=-3.42770115894695e-05 -0.068986044060203089 0.13513427841067313 -0.013584375265144161
leaf_weight=58100 79 125 3502
leaf_count=58100 79 125 3502
internal_value=0 0.560877 -0.00804584
internal_weight=0 204 61602
internal_count=61806 204 61602
shrinkage=0.1


Tree=186
num_leaves=4
num_cat=0
split_feature=0 13 10
split_gain=149.827 235.893 185.377
threshold=11831.500000000002 25.130000000000006 89500.000000000015
decision_type=2 2 2
left_child=2 -2 -1
right_child=1 -3 -4
leaf_value=-7.6281089136674858e-05 -0.0066273671661253603 -0.063390864849057413 0.018704054248551462
leaf_weight=44380 10678 786 5962
leaf_count=44380 10678 786 5962
internal_value=0 -0.105192 0.0214787
internal_weight=0 11464 50342
internal_count=61806 11464 50342
shrinkage=0.1


Tree=187
num_leaves=4
num_cat=0
split_feature=11 10 10
split_gain=55.1996 155.657 147.492
threshold=1.0000000180025095e-35 65500.000000000007 70500.000000000015
decision_type=2 2 2
left_child=1 -1 -2
right_child=2 -3 -4
leaf_value=-0.0039672901159626085 0.0013388578257811723 0.011628910461500946 -0.013454479499096528
leaf_weight=12937 27252 12663 8954
leaf_count=12937 27252 12663 8954
internal_value=0 0.0374735 -0.0231964
internal_weight=0 25600 36206
internal_count=61806 25600 36206
shrinkage=0.1


Tree=188
num_leaves=4
num_cat=0
split_feature=10 13 9
split_gain=60.0414 249.707 77.763
threshold=107500.00000000001 19.612500000000001 98.500000000000014
decision_type=2 2 2
left_child=2 -2 -1
right_child=1 -3 -4
leaf_value=0.00049852394022941295 -0.2783349779744943 -0.012521342462347339 -0.1020759368164314
leaf_weight=59766 36 1930 74
leaf_count=59766 36 1930 74
internal_value=0 -0.173887 0.00371677
internal_weight=0 1966 59840
internal_count=61806 1966 59840
shrinkage=0.1


Tree=189
num_leaves=4
num_cat=0
split_feature=13 3 13
split_gain=133.179 267.146 87.6099
threshold=28.295000000000005 84.000000000000014 27.442500000000006
decision_type=2 10 2
left_child=2 -2 -1
right_child=1 -3 -4
leaf_value=0.00057422302368405364 -0.066200012803637784 0.01322299208764568 0.037431312312566294
leaf_weight=59459 868 827 652
leaf_count=59459 868 827 652
internal_value=0 -0.274491 0.00973997
internal_weight=0 1695 60111
internal_count=61806 1695 60111
shrinkage=0.1


Tree=190
num_leaves=4
num_cat=0
split_feature=0 0 9
split_gain=74.3538 128.454 88.3749
threshold=1777.5000000000002 1956.5000000000002 87.500000000000014
decision_type=2 2 2
left_child=2 -2 -1
right_child=1 -3 -4
leaf_value=0.010373265735563358 -0.042212454039148396 -0.0010750544897202728 -0.068447508899302331
leaf_weight=7496 770 53395 145
leaf_count=7496 770 53395 145
internal_value=0 -0.0165986 0.0887752
internal_weight=0 54165 7641
internal_count=61806 54165 7641
shrinkage=0.1


Tree=191
num_leaves=4
num_cat=0
split_feature=11 7 10
split_gain=75.5018 169.035 137.668
threshold=1.0000000180025095e-35 1.0000000180025095e-35 61500.000000000007
decision_type=2 10 2
left_child=2 -2 -1
right_child=1 -3 -4
leaf_value=-0.0021063044635891621 0.0014673861151502893 -0.019653600754223025 0.012611976825063967
leaf_weight=11481 31789 4302 14234
leaf_count=11481 31789 4302 14234
internal_value=0 -0.0105021 0.0604069
internal_weight=0 36091 25715
internal_count=61806 36091 25715
shrinkage=0.1


Tree=192
num_leaves=3
num_cat=0
split_feature=10 10
split_gain=169.477 62.8745
threshold=119500.00000000001 39500.000000000007
decision_type=2 2
left_child=1 -1
right_child=-2 -3
leaf_value=-0.0081189042433295559 -0.2177476799052076 0.00066182562723976002
leaf_weight=9668 36 52102
leaf_count=9668 36 52102
internal_value=0 -0.007125
internal_weight=0 61770
internal_count=61806 61770
shrinkage=0.1


Tree=193
num_leaves=4
num_cat=0
split_feature=10 0 13
split_gain=90.7441 230.861 75.3421
threshold=105500.00000000001 6458.5000000000009 25.312500000000004
decision_type=2 2 2
left_child=2 -2 -1
right_child=1 -3 -4
leaf_value=0.00051214204377639499 -0.011486115385828865 0.052214464339341626 -0.015576308493117953
leaf_weight=56461 1150 1126 3069
leaf_count=56461 1150 1126 3069
internal_value=0 0.200283 -0.00317279
internal_weight=0 2276 59530
internal_count=61806 2276 59530
shrinkage=0.1


Tree=194
num_leaves=4
num_cat=0
split_feature=13 0 13
split_gain=64.5772 189.776 78.2136
threshold=24.502500000000001 12739.500000000002 14.7475
decision_type=2 2 2
left_child=2 -2 -1
right_child=1 -3 -4
leaf_value=0.001632961386674984 0.003903253824309292 0.063441049982715894 -0.006290745307251093
leaf_weight=37517 5040 599 18650
leaf_count=37517 5040 599 18650
internal_value=0 0.102276 -0.0099807
internal_weight=0 5639 56167
internal_count=61806 5639 56167
shrinkage=0.1


Tree=195
num_leaves=4
num_cat=0
split_feature=13 10 1
split_gain=50.0072 606.776 365.966
threshold=11.407500000000001 58500.000000000007 7.5000000000000009
decision_type=2 2 10
left_child=2 -2 -1
right_child=1 -3 -4
leaf_value=0.00074167881322063055 -0.031154508664120596 0.0034710753248848761 0.084730923881270986
leaf_weight=29748 6333 25197 528
leaf_count=29748 6333 25197 528
internal_value=0 -0.0348369 0.0220641
internal_weight=0 31530 30276
internal_count=61806 31530 30276
shrinkage=0.1


Tree=196
num_leaves=4
num_cat=0
split_feature=10 2 0
split_gain=107.518 181.221 77.0583
threshold=117500.00000000001 8.5000000000000018 11452.500000000002
decision_type=2 8 2
left_child=2 -2 -1
right_child=1 -3 -4
leaf_value=-0.0016312172366678744 0.083125215683934051 -0.086317361776189067 0.0070089543930833224
leaf_weight=48284 79 314 13129
leaf_count=48284 79 314 13129
internal_value=0 -0.522564 0.00215897
internal_weight=0 393 61413
internal_count=61806 393 61413
shrinkage=0.1


Tree=197
num_leaves=4
num_cat=0
split_feature=0 9 0
split_gain=55.8244 70.3661 47.8215
threshold=283.50000000000006 47.500000000000007 6631.5000000000009
decision_type=2 2 2
left_child=1 -1 -2
right_child=2 -3 -4
leaf_value=0.014199711338726065 0.0042416543388170856 -0.036667776778026913 -0.0014163013725396547
leaf_weight=401 26786 845 33774
leaf_count=401 26786 845 33774
internal_value=0 -0.202971 0.0108624
internal_weight=0 1246 60560
internal_count=61806 1246 60560
shrinkage=0.1


Tree=198
num_leaves=4
num_cat=0
split_feature=1 9 13
split_gain=70.2183 193.379 74.0673
threshold=1.0000000180025095e-35 79.500000000000014 4.6175000000000006
decision_type=10 2 2
left_child=2 -2 -1
right_child=1 -3 -4
leaf_value=-0.0015858886942086035 -0.0012689210910592568 -0.041738537755426575 0.006545595533274837
leaf_weight=19194 14424 1286 26902
leaf_count=19194 14424 1286 26902
internal_value=0 -0.0458171 0.0315971
internal_weight=0 15710 46096
internal_count=61806 15710 46096
shrinkage=0.1


Tree=199
num_leaves=4
num_cat=0
split_feature=13 10 1
split_gain=129.67 435.928 266.696
threshold=11.162500000000001 56500.000000000007 7.5000000000000009
decision_type=2 2 10
left_child=2 -2 -1
right_child=1 -3 -4
leaf_value=0.0013942052985227299 -0.032113973028471403 -0.0012420280005421029 0.077086998368062112
leaf_weight=29304 5528 26501 473
leaf_count=29304 5528 26501 473
internal_value=0 -0.0657033 0.0259657
internal_weight=0 32029 29777
internal_count=61806 32029 29777
shrinkage=0.1


end of trees

feature importances:
median_spending=221
income=130
reward=64
person=50
age=48
difficulty=34
duration=17
web=14
M=9
social=8
discount=2
O=2

parameters:
[boosting: gbdt]
[objective: regression]
[metric: rmse]
[tree_learner: serial]
[device_type: cpu]
[data: ]
[valid: ]
[num_iterations: 100]
[learning_rate: 0.1]
[num_leaves: 4]
[num_threads: 0]
[max_depth: 2]
[min_data_in_leaf: 20]
[min_sum_hessian_in_leaf: 0.001]
[bagging_fraction: 0.7]
[pos_bagging_fraction: 1]
[neg_bagging_fraction: 1]
[bagging_freq: 1]
[bagging_seed: 3]
[feature_fraction: 1]
[feature_fraction_bynode: 1]
[feature_fraction_seed: 2]
[early_stopping_round: 0]
[first_metric_only: 0]
[max_delta_step: 0]
[lambda_l1: 0]
[lambda_l2: 0]
[min_gain_to_split: 0]
[drop_rate: 0.1]
[max_drop: 50]
[skip_drop: 0.5]
[xgboost_dart_mode: 0]
[uniform_drop: 0]
[drop_seed: 4]
[top_rate: 0.2]
[other_rate: 0.1]
[min_data_per_group: 100]
[max_cat_threshold: 32]
